%YAML:1.0
---
opencv_ml_svm:
   format: 3
   svmType: C_SVC
   kernel:
      type: LINEAR
   C: 2.6699999999999999e+00
   term_criteria: { epsilon:1.1920928955078125e-07, iterations:1000 }
   var_count: 1344
   class_count: 10
   class_labels: !!opencv-matrix
      rows: 10
      cols: 1
      dt: i
      data: [ 0, 1, 2, 3, 4, 5, 6, 7, 8, 9 ]
   sv_total: 45
   support_vectors:
      - [ 0., 0., 0., 0., 0., 0., 0., 8.91556226e-07, 5.26046188e-06,
          1.04519559e-05, 9.99867007e-06, 1.05107210e-06,
          -8.02010618e-08, 4.54176552e-06, 4.54176552e-06,
          3.66898348e-06, 6.15646923e-06, 7.59407021e-06, 3.80887036e-06,
          0., 0., 0., 0., 0., 0., 0., 0., 0., 0., 0., 0., 0., 0.,
          7.33434661e-07, 4.06247727e-06, 4.95403356e-06, 1.02194808e-05,
          7.53964969e-06, 4.29536249e-06, 2.08696838e-06,
          -3.82242490e-07, 6.37367421e-08, 4.56407270e-06,
          9.26469693e-06, 9.65629988e-06, 9.72648559e-06, 7.45196758e-06,
          5.45289640e-06, 3.77828042e-06, 2.50034532e-07, 0., 0., 0., 0.,
          0., 0., 0., 0., 0., 1.46686932e-06, 3.34018114e-06,
          4.22576522e-06, 6.24270888e-06, 1.05065465e-05, 7.46932255e-06,
          4.59605235e-06, 2.54344809e-06, 6.79306027e-07,
          -1.69406589e-21, -1.69406589e-21, 4.98685858e-06,
          1.03386092e-05, 1.03386092e-05, 1.17924119e-05, 1.28666925e-05,
          1.05711169e-05, 6.00343901e-06, 4.13942325e-06, 1.31126967e-06,
          0., 0., 0., 0., 0., 0., 0., 0., 2.19251478e-06, 5.95923666e-06,
          1.05513900e-05, 1.18417547e-05, 1.35764885e-05, 7.19084073e-06,
          2.38547000e-06, 7.42497264e-07, -1.69406589e-21,
          -1.69406589e-21, -1.69406589e-21, 4.98685858e-06,
          1.03386092e-05, 1.03386092e-05, 1.23607297e-05, 1.43670522e-05,
          1.37305360e-05, 1.00634998e-05, 6.06037975e-06, 4.09984932e-06,
          1.53352244e-06, 0., 0., 0., 0., 0., 1.46686932e-06,
          1.86692455e-06, 4.49775143e-06, 1.00328980e-05, 1.36103336e-05,
          1.43670522e-05, 1.43670522e-05, 7.19084073e-06, 1.43760110e-06,
          -1.69406589e-21, -1.69406589e-21, -4.00055256e-07,
          -1.73357284e-06, 1.28567308e-06, 6.24370932e-06,
          1.03386092e-05, 1.23607297e-05, 1.43670522e-05, 1.43670522e-05,
          1.34129377e-05, 1.02548247e-05, 7.01036015e-06, 3.96918131e-06,
          9.33462275e-07, 0., 0., 0., 0., 3.33379398e-06, 5.05903245e-06,
          9.41162580e-06, 1.36103336e-05, 1.43670522e-05, 1.43670522e-05,
          9.42073711e-06, 3.76450680e-06, 8.21486367e-07,
          -6.66758751e-07, -1.38710948e-06, -2.25650865e-06,
          -4.35679885e-06, -1.83978443e-06, 3.25399697e-06,
          9.00509167e-06, 1.16939709e-05, 1.43670522e-05, 1.43670522e-05,
          1.43670522e-05, 1.35941391e-05, 1.02004651e-05, 6.78340075e-06,
          2.88370620e-06, 6.27843576e-07, 0., 0., 0., 3.74934984e-06,
          7.76705656e-06, 1.33122840e-05, 1.43670522e-05, 1.43670522e-05,
          9.56921122e-06, 3.96302858e-06, -4.89017111e-08,
          -1.01124374e-06, -4.50845346e-06, -7.55100700e-06,
          -8.20176501e-06, -8.18665376e-06, -6.86941121e-06,
          -5.46648153e-07, 5.25421046e-06, 9.14771135e-06,
          1.33558078e-05, 1.37336310e-05, 1.43670522e-05, 1.43670522e-05,
          1.35941391e-05, 9.41384587e-06, 4.41919292e-06, 1.79464973e-06,
          5.77838307e-07, 0., 2.66703523e-07, 6.32867477e-06,
          1.28078236e-05, 1.41448063e-05, 1.40510956e-05, 9.06312562e-06,
          4.04114644e-06, -5.56610757e-08, -3.67285088e-06,
          -5.96969812e-06, -1.05186646e-05, -1.43066072e-05,
          -1.43066072e-05, -1.42386070e-05, -7.69071085e-06,
          -2.53838380e-07, 2.42203691e-06, 5.12936776e-06,
          8.39735367e-06, 1.04102246e-05, 1.38669911e-05, 1.43503830e-05,
          1.43670522e-05, 1.34123438e-05, 7.79632774e-06, 4.15052591e-06,
          1.26679936e-06, 0., 5.32877357e-06, 1.27274570e-05,
          1.38776131e-05, 9.65184063e-06, 7.76406432e-06, 1.09467624e-06,
          -2.83372486e-07, -4.75252955e-06, -7.49336095e-06,
          -1.19736060e-05, -1.38828937e-05, -1.43670522e-05,
          -1.43670522e-05, -1.43443849e-05, -8.82108179e-06,
          -3.44666432e-06, -3.44666432e-06, -1.37860832e-06,
          3.51226299e-06, 8.38982578e-06, 9.78867138e-06, 1.38614341e-05,
          1.43670522e-05, 1.34350103e-05, 7.84166059e-06, 4.15052591e-06,
          1.26679936e-06, 0., 6.12986196e-06, 1.37424731e-05,
          7.94931748e-06, 7.70327745e-07, -1.69406589e-21,
          -7.33434661e-07, -3.95537518e-06, -6.17781461e-06,
          -1.19387832e-05, -1.15695457e-05, -1.27858530e-05,
          -1.43670522e-05, -1.43670522e-05, -1.43670522e-05,
          -9.38019366e-06, -4.02844262e-06, -4.02844262e-06,
          -2.00632235e-06, 3.26212603e-06, 8.27138501e-06,
          8.99969109e-06, 1.33058193e-05, 1.43670522e-05, 1.34350103e-05,
          8.29018154e-06, 6.70723330e-06, 4.01162197e-06, 2.94475313e-07,
          -1.03987361e-06, 6.57829332e-06, 7.50333811e-07,
          -1.69406589e-21, -1.69406589e-21, -9.16793340e-07,
          -5.73998477e-06, -1.15806979e-05, -1.17347654e-05,
          -6.33942591e-06, -1.04748697e-05, -1.43670522e-05,
          -1.43670522e-05, -1.43670522e-05, -1.10830233e-05,
          -6.01507736e-06, -4.02844262e-06, -2.00632235e-06,
          1.28497368e-06, 4.12639838e-06, 8.32979276e-06, 1.28682022e-05,
          1.42614854e-05, 1.42761210e-05, 1.31622173e-05, 8.04656429e-06,
          4.75060915e-06, 1.41681517e-06, -7.64239394e-06,
          -5.14209717e-07, -1.69406589e-21, -1.69406589e-21,
          -1.69406589e-21, -9.16793340e-07, -1.01403621e-05,
          -1.18999851e-05, -6.29888245e-06, -1.94313111e-06,
          -7.23631774e-06, -1.22817401e-05, -1.43670522e-05,
          -1.43670522e-05, -1.43670522e-05, -9.74508566e-06,
          -4.02844262e-06, -2.00632235e-06, 1.51111223e-07,
          1.59521392e-06, 4.44695570e-06, 9.90878743e-06, 1.29891123e-05,
          1.43670522e-05, 1.42306553e-05, 1.22748506e-05, 5.26734721e-06,
          3.80047777e-06, -7.21365905e-06, -4.68273811e-07,
          -1.69406589e-21, -1.69406589e-21, -6.66758751e-07,
          -4.05361561e-06, -9.88376723e-06, -6.17725163e-06,
          -1.81674864e-06, -4.42338802e-07, -6.44642705e-06,
          -1.17762102e-05, -1.43670522e-05, -1.43670522e-05,
          -1.43670522e-05, -9.74508566e-06, -4.02844262e-06,
          -2.00632235e-06, 0., 4.53333683e-07, 2.92093728e-06,
          8.17521504e-06, 1.25890574e-05, 1.43670522e-05, 1.43670522e-05,
          1.33205558e-05, 5.66740255e-06, 5.66740255e-06,
          -4.82818905e-06, 1.59370961e-06, 1.62174260e-07,
          -1.69406589e-21, 7.14687019e-07, 1.11667123e-06,
          -3.98014663e-07, -1.64297273e-06, -3.47551918e-07, 0.,
          -6.44642705e-06, -1.17762102e-05, -1.43670522e-05,
          -1.43670522e-05, -1.43670522e-05, -9.74508566e-06,
          -4.02844262e-06, -2.00632235e-06, 0., 0., 2.57338138e-06,
          8.17521504e-06, 1.25890574e-05, 1.43670522e-05, 1.43670522e-05,
          1.36924064e-05, 9.18996921e-06, 5.66740255e-06, 6.29419333e-07,
          1.19544511e-05, 3.79918720e-06, 2.94777237e-06, 1.00230473e-05,
          5.96507834e-06, 1.31487320e-06, 0., 0., 0., -6.44642705e-06,
          -1.17762102e-05, -1.43670522e-05, -1.38805290e-05,
          -1.38805290e-05, -9.74508566e-06, -4.02844262e-06,
          -2.00632235e-06, 0., 0., 2.57338138e-06, 8.17521504e-06,
          1.25890574e-05, 1.43670522e-05, 1.43670522e-05, 1.37694360e-05,
          9.33630872e-06, 5.66740255e-06, 1.29502369e-05, 1.42170366e-05,
          1.43670522e-05, 1.43670522e-05, 1.28501761e-05, 6.55612939e-06,
          1.47400226e-06, 0., 0., 0., -6.44642705e-06, -1.17762102e-05,
          -1.43670522e-05, -9.17747548e-06, -9.17747548e-06,
          -9.74508566e-06, -4.02844262e-06, -2.00632235e-06, 0., 0.,
          1.98988619e-06, 6.44346483e-06, 1.25507777e-05, 1.43670522e-05,
          1.43670522e-05, 1.34966440e-05, 6.53635607e-06, 5.66740255e-06,
          1.29502369e-05, 1.42170366e-05, 1.43670522e-05, 1.43670522e-05,
          1.28501761e-05, 3.69180634e-06, 6.55624262e-07, 0., 0., 0.,
          -6.44642705e-06, -1.17762102e-05, -1.43670522e-05,
          -1.42048775e-05, -1.42048775e-05, -9.74508566e-06,
          -4.02844262e-06, -2.00632235e-06, 0., 0., 1.03511184e-06,
          3.29469458e-06, 1.20339982e-05, 1.43670522e-05, 1.43670522e-05,
          1.34966440e-05, 6.53635607e-06, 5.66740255e-06, 1.29502369e-05,
          1.42170366e-05, 1.43670522e-05, 1.43670522e-05, 1.28501761e-05,
          4.99251109e-06, 1.25043857e-06, 0., 0., 0., -6.44642705e-06,
          -1.17762102e-05, -1.43670522e-05, -1.43670522e-05,
          -1.43670522e-05, -9.74508566e-06, -4.02844262e-06,
          -2.00632235e-06, 0., 0., 1.03511184e-06, 3.26789859e-06,
          1.19957185e-05, 1.43670522e-05, 1.43670522e-05, 1.34966440e-05,
          6.54018413e-06, 5.66740255e-06, 1.22803385e-05, 1.41443043e-05,
          1.43670522e-05, 1.43670522e-05, 1.28501761e-05, 8.94535242e-06,
          2.44855778e-06, 0., 0., 0., -6.44642705e-06, -1.17762102e-05,
          -1.43670522e-05, -1.43670522e-05, -1.43670522e-05,
          -9.74508566e-06, -4.02844262e-06, -2.00632235e-06, 0., 0.,
          1.02755632e-06, 3.57796580e-06, 1.24053140e-05, 1.43670522e-05,
          1.43670522e-05, 1.34966440e-05, 6.54018413e-06, 5.66740255e-06,
          1.19740989e-05, 1.41136807e-05, 1.43670522e-05, 1.43670522e-05,
          1.28501761e-05, 8.94535242e-06, 2.73747696e-06, 2.83363022e-07,
          0., 0., -6.44642705e-06, -1.17762102e-05, -1.43670522e-05,
          -1.43670522e-05, -1.43670522e-05, -9.74508566e-06,
          -4.02844262e-06, -2.00632235e-06, 0., 0., 2.87111334e-07,
          2.97915653e-06, 1.25890574e-05, 1.43670522e-05, 1.43670522e-05,
          1.37459774e-05, 7.77929654e-06, 5.66740255e-06, 1.11127656e-05,
          1.40230140e-05, 1.43670522e-05, 1.43670522e-05, 1.28501761e-05,
          8.94535242e-06, 2.98750297e-06, 5.38945358e-07, 0., 0.,
          -6.44642705e-06, -1.17762102e-05, -1.43670522e-05,
          -1.43670522e-05, -1.43670522e-05, -9.74508566e-06,
          -4.02844262e-06, -2.00632235e-06, 0., 0., 0., 2.68448957e-06,
          1.11388572e-05, 1.37002935e-05, 1.43670522e-05, 1.42988538e-05,
          1.30139906e-05, 5.66740255e-06, 5.63728327e-06, 1.36540639e-05,
          1.43670522e-05, 1.43670522e-05, 1.28501761e-05, 8.94535242e-06,
          2.44855778e-06, 0., 0., 0., -6.44642705e-06, -1.17762102e-05,
          -1.43670522e-05, -1.43670522e-05, -1.43670522e-05,
          -9.74508566e-06, -4.02844262e-06, -2.00632235e-06, 0., 0., 0.,
          2.68448957e-06, 9.25526365e-06, 1.28501761e-05, 1.43670522e-05,
          1.43670522e-05, 1.37414381e-05, 5.66740255e-06, 4.25058715e-06,
          1.35914224e-05, 1.43670522e-05, 1.43670522e-05, 1.28501761e-05,
          8.94535242e-06, 2.44855778e-06, 0., 0., 0., -6.44642705e-06,
          -1.17762102e-05, -1.43670522e-05, -1.43670522e-05,
          -1.43670522e-05, -9.74508566e-06, -4.02844262e-06,
          -2.00632235e-06, 0., 0., 0., 2.60027377e-06, 9.14425164e-06,
          1.28501761e-05, 1.43670522e-05, 1.43670522e-05, 1.37605775e-05,
          5.85114594e-06, 4.25058715e-06, 1.35875944e-05, 1.43670522e-05,
          1.43670522e-05, 1.28501761e-05, 9.68579752e-06, 3.01522482e-06,
          0., 0., 0., -6.44642705e-06, -1.17762102e-05, -1.43670522e-05,
          -1.43670522e-05, -1.43670522e-05, -9.74508566e-06,
          -4.02844262e-06, -2.00632235e-06, 0., 0., 0., 2.23278676e-06,
          8.66192477e-06, 1.28501761e-05, 1.43670522e-05, 1.43670522e-05,
          1.38447940e-05, 6.64354002e-06, 4.25058715e-06, 1.35875944e-05,
          1.43670522e-05, 1.43670522e-05, 1.28501761e-05, 1.01164651e-05,
          3.34011384e-06, 0., 0., 0., -6.44642705e-06, -1.17762102e-05,
          -1.43670522e-05, -1.43670522e-05, -1.43670522e-05,
          -9.74508566e-06, -4.02844262e-06, -2.00632235e-06, 0., 0., 0.,
          2.23278676e-06, 8.66192477e-06, 1.28501761e-05, 1.43670522e-05,
          1.43670522e-05, 1.38447940e-05, 6.64354002e-06, 4.25058715e-06,
          1.35914224e-05, 1.43670522e-05, 1.43670522e-05, 1.28501761e-05,
          1.01164651e-05, 3.34011384e-06, 0., 0., 0., -6.44642705e-06,
          -1.17762102e-05, -1.43670522e-05, -1.43670522e-05,
          -1.43670522e-05, -9.74508566e-06, -4.02844262e-06,
          -2.00632235e-06, 0., 0., 0., 2.23278676e-06, 8.66192477e-06,
          1.28501761e-05, 1.43670522e-05, 1.43670522e-05, 1.38447940e-05,
          6.64354002e-06, 4.25058715e-06, 1.35858663e-05, 1.43670522e-05,
          1.43670522e-05, 1.28501761e-05, 1.01164651e-05, 3.34011384e-06,
          0., 0., 0., -4.25707458e-06, -1.03166421e-05, -1.43670522e-05,
          -1.43670522e-05, -1.43670522e-05, -9.74508566e-06,
          -4.02844262e-06, -2.00632235e-06, 0., 0., 0., 2.23278676e-06,
          8.66192477e-06, 1.28501761e-05, 1.43670522e-05, 1.43670522e-05,
          1.38447940e-05, 6.64354002e-06, 4.25058715e-06, 1.35914224e-05,
          1.43670522e-05, 1.43670522e-05, 1.28501761e-05, 1.01164651e-05,
          3.34011384e-06, 0., 0., 0., 0., -7.51913603e-06,
          -1.43670522e-05, -1.43670522e-05, -1.43670522e-05,
          -9.74508566e-06, -4.02844262e-06, -2.00632235e-06, 0., 0., 0.,
          2.23278676e-06, 8.26743872e-06, 1.21667708e-05, 1.43670522e-05,
          1.43670522e-05, 1.38447940e-05, 6.64354002e-06, 4.25058715e-06,
          1.35914224e-05, 1.43670522e-05, 1.43670522e-05, 1.28501761e-05,
          1.01164651e-05, 3.34011384e-06, 0., 0., 0., 0.,
          -7.51913603e-06, -1.43670522e-05, -1.43670522e-05,
          -1.43670522e-05, -1.07586748e-05, -5.36638026e-06,
          -2.00632235e-06, 0., 0., 0., 2.23278676e-06, 8.45634804e-06,
          1.24890266e-05, 1.43670522e-05, 1.43670522e-05, 1.38447940e-05,
          6.64354002e-06, 4.25058715e-06, 1.35914224e-05, 1.43670522e-05,
          1.43670522e-05, 1.28501761e-05, 1.01164651e-05, 3.34011384e-06,
          0., 0., 0., 0., -7.51913603e-06, -1.43670522e-05,
          -1.43670522e-05, -1.43670522e-05, -1.43670522e-05,
          -1.01099777e-05, -2.00632235e-06, 0., 0., 0., 2.22523113e-06,
          8.64681351e-06, 1.28501761e-05, 1.43670522e-05, 1.43670522e-05,
          1.38447940e-05, 6.64354002e-06, 4.25058715e-06, 1.35914224e-05,
          1.43670522e-05, 1.43670522e-05, 1.28501761e-05, 1.01164651e-05,
          3.43964166e-06, 9.95277603e-08, 0., 0., 0., -7.51913603e-06,
          -1.43670522e-05, -1.43670522e-05, -1.43670522e-05,
          -1.43670522e-05, -1.01099777e-05, -2.00632235e-06, 0., 0., 0.,
          1.57545298e-06, 7.79303537e-06, 1.28501761e-05, 1.43670522e-05,
          1.43670522e-05, 1.38447940e-05, 6.64354002e-06, 4.25058715e-06,
          1.35800383e-05, 1.43670522e-05, 1.43670522e-05, 1.28501761e-05,
          1.01164651e-05, 3.86454849e-06, 5.24434768e-07, 0., 0., 0.,
          -7.51913603e-06, -1.43670522e-05, -1.43670522e-05,
          -1.43670522e-05, -1.42048775e-05, -9.94780294e-06,
          -2.00632235e-06, 0., 0., 0., 1.34123059e-06, 7.49081300e-06,
          1.28501761e-05, 1.43670522e-05, 1.43670522e-05, 1.39354606e-05,
          7.55020710e-06, 4.25058715e-06, 1.35875944e-05, 1.43670522e-05,
          1.43670522e-05, 1.28501761e-05, 1.01164651e-05, 4.06854861e-06,
          7.28434884e-07, 0., 0., 0., -7.51913603e-06, -1.43670522e-05,
          -1.43670522e-05, -1.43670522e-05, -9.90725948e-06,
          -4.23116035e-06, -2.00632235e-06, 0., 0., 0., 1.34123059e-06,
          7.49081300e-06, 1.28501761e-05, 1.43670522e-05, 1.43670522e-05,
          1.40487937e-05, 8.57020768e-06, 4.54506244e-06, 1.36192029e-05,
          1.43670522e-05, 1.43670522e-05, 1.28501761e-05, 1.01164651e-05,
          4.82410496e-06, 1.48016306e-06, 0., 0., 0., -7.51913603e-06,
          -1.43670522e-05, -1.43670522e-05, -1.43670522e-05,
          -9.74508566e-06, -4.02844262e-06, -2.00632235e-06, 0., 0., 0.,
          1.34123059e-06, 7.49081300e-06, 1.28501761e-05, 1.43670522e-05,
          1.43670522e-05, 1.42079225e-05, 1.15254616e-05, 5.66740255e-06,
          1.31404431e-05, 1.42445560e-05, 1.43670522e-05, 1.28501761e-05,
          1.01164651e-05, 4.89966078e-06, 1.54816303e-06, 0., 0., 0.,
          -7.51913603e-06, -1.43670522e-05, -1.43670522e-05,
          -1.43670522e-05, -1.36372673e-05, -9.17747548e-06,
          -2.00632235e-06, 0., 0., 0., 1.34123059e-06, 9.79113065e-06,
          1.38836522e-05, 1.43670522e-05, 1.43670522e-05, 1.43670522e-05,
          1.43670522e-05, 5.60628496e-06, 1.28555439e-05, 1.41909641e-05,
          1.43670522e-05, 1.37002935e-05, 1.20000586e-05, 6.24089125e-06,
          2.02937827e-06, 0., 0., 0., -7.51913603e-06, -1.43670522e-05,
          -1.43670522e-05, -1.43670522e-05, -1.43670522e-05,
          -1.01099777e-05, -2.00632235e-06, 0., 0., 0., 1.68878637e-06,
          1.12779408e-05, 1.43670522e-05, 1.43670522e-05, 1.43670522e-05,
          1.42761210e-05, 1.26166324e-05, 4.31170474e-06, 1.27241965e-05,
          1.41909641e-05, 1.43670522e-05, 1.43670522e-05, 1.34502588e-05,
          9.35527351e-06, 3.09781603e-06, 0., 0., 0., -7.51913603e-06,
          -1.43670522e-05, -1.43670522e-05, -1.43670522e-05,
          -1.43670522e-05, -1.01099777e-05, -2.00632235e-06, 0., 0., 0.,
          2.23278676e-06, 1.19957185e-05, 1.43670522e-05, 1.43670522e-05,
          1.43670522e-05, 1.40487937e-05, 8.57020768e-06, 4.25058715e-06,
          1.27186404e-05, 1.41909641e-05, 1.43670522e-05, 1.43670522e-05,
          1.37336310e-05, 1.05887775e-05, 3.33563753e-06, 1.83743566e-07,
          0., -1.89573768e-07, -7.75610351e-06, -1.43670522e-05,
          -1.43670522e-05, -1.43670522e-05, -1.43670522e-05,
          -1.01099777e-05, -2.00632235e-06, 0., 0., 1.36396324e-07,
          2.64197570e-06, 1.19957185e-05, 1.43670522e-05, 1.43670522e-05,
          1.43670522e-05, 1.40487937e-05, 8.57020768e-06, 4.25058715e-06,
          1.17233058e-05, 1.39945196e-05, 1.43670522e-05, 1.43670522e-05,
          1.43670522e-05, 1.39058830e-05, 4.44962325e-06, 5.93338598e-07,
          0., -1.99052465e-06, -1.00783818e-05, -1.43670522e-05,
          -1.43670522e-05, -1.43670522e-05, -1.43670522e-05,
          -1.01099777e-05, -2.00632235e-06, 0., 0., 1.59583192e-06,
          7.98286237e-06, 1.29734944e-05, 1.43670522e-05, 1.43670522e-05,
          1.43670522e-05, 1.40487937e-05, 8.57020768e-06, 4.25058715e-06,
          1.09959719e-05, 1.38434089e-05, 1.43670522e-05, 1.43670522e-05,
          1.43670522e-05, 1.40836792e-05, 8.88368504e-06, 2.58998261e-06,
          4.21078994e-08, -2.36967210e-07, -7.81929430e-06,
          -1.43670522e-05, -1.43670522e-05, -1.43670522e-05,
          -1.19344377e-05, -6.86649219e-06, -2.00632235e-06, 0.,
          1.61856462e-06, 6.19103002e-06, 1.21147277e-05, 1.43670522e-05,
          1.43670522e-05, 1.43670522e-05, 1.43670522e-05, 1.40487937e-05,
          8.57020768e-06, 4.25058715e-06, 1.02014446e-05, 1.36822810e-05,
          1.43670522e-05, 1.43670522e-05, 1.43670522e-05, 1.43503830e-05,
          1.38669911e-05, 8.79075924e-06, 2.80380027e-06, 0.,
          -7.51913603e-06, -1.43670522e-05, -1.43670522e-05,
          -1.43670522e-05, -1.19344377e-05, -6.86649219e-06,
          -2.00632235e-06, 1.54582506e-06, 5.76038519e-06,
          1.17947629e-05, 1.40325683e-05, 1.43670522e-05, 1.43670522e-05,
          1.43670522e-05, 1.39578633e-05, 9.77504260e-06, 8.57020768e-06,
          8.00110513e-07, 5.29030467e-06, 8.37646348e-06, 1.34734119e-05,
          1.43670522e-05, 1.43670522e-05, 1.43670522e-05, 1.43670522e-05,
          1.08352560e-05, 9.63695311e-06, 6.81701931e-06,
          -2.33056562e-06, -1.19084543e-05, -1.43670522e-05,
          -1.43670522e-05, -1.43670522e-05, -9.63637831e-06,
          2.86449335e-07, 7.99702048e-06, 1.03630528e-05, 1.30836934e-05,
          1.43670522e-05, 1.43670522e-05, 1.36778117e-05, 1.01505211e-05,
          1.00331044e-05, 7.75343142e-06, 4.35298443e-06,
          -2.30648084e-06, -1.25633585e-06, 1.70240628e-06,
          9.99685017e-06, 1.26638615e-05, 1.38773194e-05, 9.34415220e-06,
          8.49273692e-06, 7.44259205e-06, 9.79350443e-06, 7.22862296e-06,
          5.65135963e-07, -5.09765459e-06, -8.84440851e-06,
          -1.03448165e-05, -8.09768881e-06, -6.07958873e-06,
          -1.12235500e-06, 5.49308288e-06, 6.72159285e-06,
          8.03184776e-06, 8.49273692e-06, 8.49273692e-06, 7.43860437e-06,
          1.31277272e-06, -2.50550897e-06, -1.80336178e-06,
          -1.01801868e-06, -4.02844262e-06, -4.02844262e-06,
          -5.46360843e-06, -2.65612272e-07, 5.72616545e-06,
          9.09404116e-06, 1.74337333e-06, -1.69406589e-21,
          -1.69406589e-21, 4.90577168e-06, 2.79750611e-06,
          -1.69406589e-21, -4.00055256e-07, -1.93512551e-06,
          -3.73101534e-06, -2.33234687e-06, -1.58011653e-06,
          -1.50355663e-06, -1.50355663e-06, -5.89333752e-07,
          -1.69406589e-21, -1.69406589e-21, -1.69406589e-21,
          -4.31921706e-07, -3.36280505e-06, -8.70219901e-06,
          -1.24545522e-05, -4.02844262e-06, -4.02844262e-06,
          -6.17725163e-06, -1.36372673e-05, -1.29239397e-05,
          -6.77713751e-06, -7.38748554e-07, -1.69406589e-21,
          -1.69406589e-21, -1.69406589e-21, -1.69406589e-21,
          -1.69406589e-21, -1.69406589e-21, -1.69406589e-21,
          -7.55556151e-09, -9.82222943e-08, -9.82222943e-08,
          -9.82222943e-08, -9.82222943e-08, -9.82222943e-08,
          -3.77778058e-08, -1.69406589e-21, -1.69406589e-21,
          -4.09188971e-07, -2.83854115e-06, -7.64203378e-06,
          -1.12317275e-05, -1.38304058e-05, -6.29888245e-06,
          -4.02844262e-06, -1.37994421e-05, -1.43670522e-05,
          -1.38986070e-05, -1.22306201e-05, -4.16458533e-06,
          -2.10107419e-06, -7.34920604e-07, -1.69406589e-21,
          -1.69406589e-21, -1.69406589e-21, -1.69406589e-21,
          -1.69406589e-21, -1.69406589e-21, -1.69406589e-21,
          -1.69406589e-21, -1.69406589e-21, -1.69406589e-21,
          -1.69406589e-21, -1.69406589e-21, -1.69406589e-21,
          -5.02626960e-07, -2.75461321e-06, -7.60882494e-06,
          -1.04720475e-05, -1.27879393e-05, -1.42859644e-05,
          -1.27453095e-05, -4.02844262e-06, -1.29074833e-05,
          -1.42859644e-05, -1.43670522e-05, -1.31335482e-05,
          -1.02214635e-05, -9.35257412e-06, -3.74576030e-06,
          -3.92263132e-07, -1.77653121e-07, -1.37807675e-07,
          5.67609902e-07, 9.73045530e-07, 9.73045530e-07, 9.73045530e-07,
          9.73045530e-07, 9.73045530e-07, 9.73045530e-07, 6.54787470e-07,
          6.37367421e-08, -1.96921235e-07, -2.75682510e-06,
          -7.53453469e-06, -1.02338345e-05, -1.16637830e-05,
          -1.24571170e-05, -1.29074833e-05, -4.02844262e-06,
          -4.02844262e-06, -4.02844262e-06, -1.34345501e-05,
          -1.43670522e-05, -1.43670522e-05, -1.43670522e-05,
          -1.33394960e-05, -4.85873716e-06, 1.78763310e-06,
          5.73405828e-07, -7.31146258e-07, 6.08153505e-06,
          1.03386092e-05, 1.03386092e-05, 1.03386092e-05, 1.03386092e-05,
          1.03386092e-05, 1.03386092e-05, 8.36086292e-06, 4.54176552e-06,
          2.95609834e-06, -1.80173311e-06, -2.10177450e-06,
          -2.10177450e-06, -2.58533055e-06, -4.02844262e-06,
          -4.02844262e-06, -4.02844262e-06 ]
      - [ 0., 0., 0., 0., 0., 0., 0., 1.51404618e-06, 3.36124208e-06,
          -7.09206552e-06, -7.15244687e-06, -4.10118446e-06,
          -4.10118446e-06, -3.41368059e-06, 8.36832328e-07,
          -3.13884789e-06, -7.61557385e-06, -8.33931244e-06,
          -1.50429332e-05, -2.02052547e-06, 0., 0., 0., 0., 0., 0., 0.,
          0., 0., 0., 0., 0., 0., 1.28638192e-06, 4.58719524e-06,
          -3.76598564e-06, -1.93699952e-06, -1.03824175e-06,
          -9.72769840e-07, -3.85993815e-07, -3.85993815e-07,
          -3.19869400e-07, 7.63009282e-08, -6.53075404e-07,
          -1.11942677e-06, -1.18375908e-06, -5.93164941e-06,
          -1.04651517e-05, 1.12072337e-06, 1.69085965e-07, 0., 0., 0.,
          0., 0., 0., 0., 0., 0., 2.57276383e-06, 3.75841751e-06,
          1.79486506e-06, 7.17845410e-07, -1.20643017e-06,
          -7.97765324e-07, 8.47032947e-21, 8.47032947e-21,
          8.47032947e-21, 8.47032947e-21, 8.47032947e-21, 8.47032947e-21,
          8.47032947e-21, 8.47032947e-21, 8.47032947e-21,
          -4.34243049e-07, -4.16161629e-06, -6.92244384e-06,
          -4.22481162e-06, -1.45014042e-06, 0., 0., 0., 0., 0., 0., 0.,
          0., 1.19410743e-06, 4.62592334e-06, 1.91869231e-06,
          1.50124009e-07, 8.47032947e-21, 8.47032947e-21, 8.47032947e-21,
          8.47032947e-21, 8.47032947e-21, 8.47032947e-21, 8.47032947e-21,
          8.47032947e-21, 8.47032947e-21, 8.47032947e-21, 8.47032947e-21,
          8.47032947e-21, 8.47032947e-21, -4.84797192e-06,
          -8.84590645e-06, -1.12157259e-05, -6.18408603e-06, 0., 0., 0.,
          0., 0., 2.57276383e-06, 7.43399710e-07, 1.29276464e-06,
          1.45921831e-06, 1.61672006e-07, 8.47032947e-21, 8.47032947e-21,
          8.47032947e-21, 8.47032947e-21, 8.47032947e-21, 8.47032947e-21,
          -7.01662884e-07, -3.04053924e-06, -2.33887633e-07,
          8.47032947e-21, 8.47032947e-21, 8.47032947e-21, 8.47032947e-21,
          8.47032947e-21, -7.77293735e-07, -3.09523716e-06,
          -8.16455031e-06, -9.99748409e-06, -4.11880137e-06, 0., 0., 0.,
          0., 5.84719055e-06, 6.18930198e-06, 3.21883067e-06,
          1.61672006e-07, 8.47032947e-21, 8.47032947e-21, 8.47032947e-21,
          2.16063285e-07, 2.40756231e-06, 1.29985654e-06,
          -5.84755355e-07, 1.41758576e-07, 1.36776021e-06,
          5.78238905e-06, 4.81597817e-06, -4.56039061e-07,
          -1.16943818e-06, 8.47032947e-21, 8.47032947e-21,
          8.47032947e-21, 8.47032947e-21, -1.83248744e-06,
          -5.33387220e-06, -9.65353684e-06, -5.36647485e-06, 0., 0., 0.,
          3.00172269e-06, 4.52030690e-06, 1.89869172e-06, 8.47032947e-21,
          8.47032947e-21, 8.47032947e-21, 3.08661839e-07, 9.26201892e-07,
          5.55601582e-06, 6.37118501e-06, 1.48623792e-06, 2.30581213e-06,
          6.35062815e-06, 7.82748612e-06, 8.45675549e-06, 2.50568087e-06,
          2.18791911e-06, 4.73848800e-08, -9.87501494e-07,
          8.47032947e-21, 8.47032947e-21, 8.47032947e-21,
          -3.25069595e-06, -1.12499256e-05, -9.45690954e-06, 0., 0.,
          -2.60836881e-08, -2.90273215e-06, -6.17395870e-07,
          8.47032947e-21, 8.47032947e-21, 8.47032947e-21, 1.25094971e-07,
          2.39922429e-06, 5.93541745e-06, 2.96410099e-06, 6.85518125e-06,
          2.07278333e-07, 2.07278333e-07, 4.40466437e-07, 6.37380845e-06,
          6.60699652e-06, 6.60699652e-06, 9.90906483e-06, 4.79430309e-06,
          -4.82954010e-06, -4.38539303e-07, -2.92359541e-08,
          8.47032947e-21, -7.77293749e-08, -5.81908125e-07,
          -4.53169241e-06, -4.38824003e-07, 0., 6.15228691e-06,
          1.19461424e-06, -4.98603328e-08, 8.47032947e-21,
          8.47032947e-21, 8.47032947e-21, 1.94897189e-06, 9.90980311e-07,
          3.19402761e-06, 2.25327699e-06, 1.70220926e-06, 0., 0.,
          7.77293749e-08, 1.91732443e-06, 1.99505394e-06, 1.99505394e-06,
          2.19449521e-06, 6.55427357e-06, -3.68561382e-06,
          -5.60099670e-06, -4.97011229e-07, 8.47032947e-21,
          8.47032947e-21, -2.53671669e-06, -9.17258603e-06,
          -4.11802876e-06, 0., 1.66817717e-05, 2.90613366e-06,
          8.47032947e-21, 8.47032947e-21, 8.47032947e-21,
          -2.29961574e-06, -4.05577521e-06, 3.89938805e-06, 0., 0., 0.,
          0., 0., 0., 0., 0., 0., 0., 4.45152773e-06, 9.30464466e-06,
          -9.82026336e-07, 4.47066100e-07, 8.47032947e-21,
          8.47032947e-21, -1.15810360e-06, -4.51522237e-06,
          -5.93312143e-06, 0., 1.10614974e-05, 2.02314300e-06,
          8.47032947e-21, 8.47032947e-21, 8.47032947e-21,
          -1.87848889e-06, -6.05424248e-06, 7.14664736e-07, 0., 0., 0.,
          0., 0., 0., 0., 0., 0., 0., 3.78282948e-06, 6.99020529e-06,
          8.67471499e-06, 3.98817519e-06, 8.47032947e-21, 8.47032947e-21,
          8.47032947e-21, -1.30818557e-06, -7.27139559e-06,
          -3.38741330e-07, -5.72556814e-07, 2.23055032e-08,
          8.47032947e-21, 8.47032947e-21, 8.47032947e-21,
          -5.94237747e-07, -4.69548377e-06, 0., 0., 0., 0., 0., 0., 0.,
          0., 0., 0., 0., 5.18195804e-07, 4.30102546e-06, 8.41702604e-06,
          -7.85905314e-08, -6.40647499e-07, 8.47032947e-21,
          8.47032947e-21, -1.95637540e-06, -8.53704751e-06,
          3.19916126e-06, 1.66371283e-05, 5.56385976e-06, 3.45701255e-06,
          3.59173941e-06, 2.50313724e-06, 3.00160559e-06, 3.26391159e-06,
          0., 0., 0., 0., 0., 0., 0., 0., 0., 0., 0., 0., 1.55458747e-06,
          4.71558178e-06, 3.94939207e-06, 3.70536395e-06, 8.47032947e-21,
          8.47032947e-21, -1.95637540e-06, -7.83538417e-06,
          6.47358820e-06, 2.24014766e-05, 2.02701467e-05, 1.12128555e-05,
          8.54066093e-06, 1.23554610e-05, 7.49456149e-06, 2.02096362e-06,
          0., 0., 0., 0., 0., 0., 0., 0., 0., 0., 0., 0., 0.,
          3.52373149e-06, 4.42525788e-06, 4.03646982e-06, 8.47032947e-21,
          8.47032947e-21, -1.83627549e-06, -7.23434732e-06,
          6.47358820e-06, 2.24014766e-05, 2.24014766e-05, 2.03292748e-05,
          1.95854063e-05, 1.83595366e-05, 5.86129772e-06, 0., 0., 0., 0.,
          0., 0., 0., 0., 0., 0., 0., 0., 0., 0., 3.52373149e-06,
          -2.58545811e-06, -7.33556931e-08, 8.47032947e-21,
          8.47032947e-21, -1.85125646e-06, -7.37519576e-06,
          6.47358820e-06, 2.24014766e-05, 2.24014766e-05, 2.24014766e-05,
          2.24014766e-05, 1.97410063e-05, 5.86129772e-06, 0., 0., 0., 0.,
          0., 0., 0., 0., 0., 0., 0., 0., 0., 0., 3.54964141e-06,
          -5.25276209e-06, -1.77417860e-06, 8.47032947e-21,
          8.47032947e-21, -1.19185040e-06, -4.06261915e-06,
          6.47358820e-06, 2.24014766e-05, 2.24014766e-05, 2.24014766e-05,
          2.24014766e-05, 1.97410063e-05, 5.86129772e-06, 0., 0., 0., 0.,
          0., 0., 0., 0., 0., 0., 0., 0., 0., 0., 3.54964141e-06,
          -6.92812046e-06, -4.01789339e-06, 8.47032947e-21,
          8.47032947e-21, -1.19185040e-06, -4.06261915e-06,
          6.47358820e-06, 2.24014766e-05, 2.24014766e-05, 2.24014766e-05,
          2.24014766e-05, 1.97410063e-05, 7.95543201e-06, 1.59553065e-06,
          0., 0., 0., 0., 0., 0., 0., 0., 0., 0., 0., 0., 0.,
          -8.21879621e-06, -1.14939367e-05, -4.18409445e-06,
          8.47032947e-21, 8.47032947e-21, 5.36655932e-07, 1.46714217e-06,
          7.36278434e-06, 1.94929580e-05, 2.20856946e-05, 2.24014766e-05,
          2.24014766e-05, 1.97410063e-05, 8.43741509e-06, 1.96117298e-06,
          0., 0., 0., 0., 0., 0., 0., 0., 0., 0., 0., 0., 0.,
          -1.44852993e-05, -1.25504484e-05, -2.40574286e-06,
          8.47032947e-21, 8.47032947e-21, 2.55418604e-06, 7.92426090e-06,
          7.45516809e-06, 1.81633495e-05, 2.19527337e-05, 2.24014766e-05,
          2.24014766e-05, 1.97410063e-05, 8.43741509e-06, 1.96117298e-06,
          0., 0., 0., 0., 0., 0., 0., 0., 0., 0., 0., -2.14262712e-07,
          -9.36280685e-06, -1.90483715e-05, -1.44746646e-05,
          -1.60797742e-06, 8.47032947e-21, 8.47032947e-21,
          5.66315975e-06, 1.89797811e-05, 7.45516809e-06, 1.52096327e-05,
          2.16418175e-05, 2.24014766e-05, 2.24014766e-05, 1.97410063e-05,
          8.43741509e-06, 1.96117298e-06, 0., 0., 0., 0., 0., 0., 0., 0.,
          0., -8.02520788e-07, -3.93521350e-06, -7.68239806e-06,
          -2.10615472e-05, -2.24014766e-05, -1.54851459e-05,
          -4.15150544e-06, -1.16943818e-06, 2.78411540e-06,
          1.14309414e-05, 2.08189267e-05, 7.45516809e-06, 1.15563525e-05,
          2.12531704e-05, 2.24014766e-05, 2.24014766e-05, 1.97410063e-05,
          8.43741509e-06, 1.96117298e-06, 0., 0., 0., 0., 0., 0., 0., 0.,
          0., -2.60882985e-06, -1.26581217e-05, -2.20704351e-05,
          -2.23706829e-05, -2.24014766e-05, -1.54851459e-05,
          -7.45516809e-06, -1.06088045e-07, 1.15723151e-05,
          2.21551200e-05, 2.08189267e-05, 7.45516809e-06, 1.15563525e-05,
          2.12531704e-05, 2.24014766e-05, 2.24014766e-05, 1.97410063e-05,
          8.43741509e-06, 1.96117298e-06, 0., 0., 0., 0., 0., 0., 0., 0.,
          -1.07832648e-06, -7.60033754e-06, -2.24014766e-05,
          -2.24014766e-05, -2.24014766e-05, -2.24014766e-05,
          -1.58507883e-05, -7.93715117e-06, 7.95247979e-06,
          2.21512710e-05, 2.24014766e-05, 2.09020272e-05, 8.25293318e-06,
          1.15563525e-05, 2.12365503e-05, 2.24014766e-05, 2.24014766e-05,
          1.97410063e-05, 1.09765742e-05, 3.90440755e-06, 0., 0., 0., 0.,
          0., 0., 0., -2.16063285e-07, -7.74056298e-06, -2.20473394e-05,
          -2.24014766e-05, -2.24014766e-05, -2.24014766e-05,
          -2.24014766e-05, -1.74463185e-05, -9.43468876e-06,
          8.65754282e-06, 2.24014766e-05, 2.24014766e-05, 2.12515861e-05,
          1.16932961e-05, 1.15563525e-05, 2.12365503e-05, 2.24014766e-05,
          2.24014766e-05, 1.97410063e-05, 1.24534326e-05, 5.01852855e-06,
          0., 0., 0., 0., 0., 0., 0., -3.50669643e-06, -1.27359626e-05,
          -2.24014766e-05, -2.24014766e-05, -2.24014766e-05,
          -2.24014766e-05, -2.24014766e-05, -1.74463185e-05,
          2.24536075e-06, 1.89589555e-05, 2.24014766e-05, 2.24014766e-05,
          2.12515861e-05, 1.16932961e-05, 1.15563525e-05, 2.12531704e-05,
          2.24014766e-05, 2.24014766e-05, 1.97410063e-05, 1.24534326e-05,
          5.01852855e-06, 0., 0., 0., 0., 0., 0., -3.76902312e-06,
          -1.30090675e-05, -2.12856758e-05, -2.24014766e-05,
          -2.24014766e-05, -2.24014766e-05, -2.24014766e-05,
          -2.24014766e-05, -4.48875744e-06, 1.08234753e-05,
          1.97410063e-05, 2.24014766e-05, 2.24014766e-05, 2.12676696e-05,
          1.16932961e-05, 1.15563525e-05, 2.12531704e-05, 2.24014766e-05,
          2.24014766e-05, 1.97410063e-05, 1.24534326e-05, 5.01852855e-06,
          0., 0., 0., 0., 0., -3.80373876e-06, -1.34035163e-05,
          -2.08074744e-05, -2.24014766e-05, -2.24014766e-05,
          -2.24014766e-05, -2.24014766e-05, -2.24014766e-05,
          -9.44173280e-06, 3.06783659e-06, 1.23701921e-05,
          1.97410063e-05, 2.24014766e-05, 2.24014766e-05, 2.12676696e-05,
          1.16932961e-05, 1.15563525e-05, 2.12531704e-05, 2.24014766e-05,
          2.24014766e-05, 1.97410063e-05, 1.24534326e-05, 5.01852855e-06,
          0., 0., 0., 0., -3.60699369e-06, -1.37637599e-05,
          -2.06480745e-05, -2.24014766e-05, -2.24014766e-05,
          -2.24014766e-05, -2.24014766e-05, -2.23088791e-05,
          -1.83580069e-05, -4.09404538e-06, 4.73959562e-06,
          1.23701921e-05, 1.97410063e-05, 2.24014766e-05, 2.21923965e-05,
          2.02383526e-05, 1.16932961e-05, 1.15563525e-05, 2.12531704e-05,
          2.24014766e-05, 2.24014766e-05, 1.97410063e-05, 1.24534326e-05,
          5.01852855e-06, 0., 0., 0., -3.02488615e-06, -1.40890388e-05,
          -2.06480745e-05, -2.24014766e-05, -2.24014766e-05,
          -2.24014766e-05, -2.24014766e-05, -2.19693502e-05,
          -1.87194819e-05, -7.03119986e-06, -1.15965884e-06,
          4.95515815e-06, 1.23701921e-05, 1.97410063e-05, 2.24014766e-05,
          2.16616554e-05, 1.76007288e-05, 1.16932961e-05, 1.15563525e-05,
          2.12531704e-05, 2.24014766e-05, 2.24014766e-05, 1.97410063e-05,
          1.24534326e-05, 5.01852855e-06, 0., 0., 0., -1.34470283e-05,
          -2.07744088e-05, -2.24014766e-05, -2.24014766e-05,
          -2.24014766e-05, -2.24014766e-05, -2.18150199e-05,
          -1.83306111e-05, -6.92255207e-06, -6.04471495e-07, 0.,
          4.92924846e-06, 1.23183727e-05, 1.97410063e-05, 2.24014766e-05,
          2.17742381e-05, 1.81797186e-05, 1.16932961e-05, 1.15563525e-05,
          2.12531704e-05, 2.24014766e-05, 2.24014766e-05, 1.97410063e-05,
          1.24534326e-05, 5.45065132e-06, 1.54327211e-07,
          -2.02060960e-06, -7.68045447e-06, -2.05840570e-05,
          -2.24014766e-05, -2.24014766e-05, -2.24014766e-05,
          -2.24014766e-05, -2.19076192e-05, -1.79806248e-05,
          -7.20670823e-06, 0., 0., 0., 2.70100645e-06, 9.39056645e-06,
          1.97410063e-05, 2.24014766e-05, 2.24014766e-05, 2.12676696e-05,
          1.16932961e-05, 1.15563525e-05, 2.12106406e-05, 2.24014766e-05,
          2.24014766e-05, 1.97410063e-05, 1.24534326e-05, 7.29548356e-06,
          -2.83587582e-07, -1.38310324e-05, -2.22228300e-05,
          -2.24014766e-05, -2.24014766e-05, -2.24014766e-05,
          -2.24014766e-05, -2.24014766e-05, -1.79511680e-05,
          -7.21364995e-06, 0., 0., 0., 0., 1.89780292e-06,
          8.35417450e-06, 1.97410063e-05, 2.24014766e-05, 2.24014766e-05,
          2.15785876e-05, 1.49311363e-05, 1.15563525e-05, 2.12365503e-05,
          2.24014766e-05, 2.24014766e-05, 1.97410063e-05, 1.24534326e-05,
          6.77297930e-06, -4.59623334e-06, -2.23745319e-05,
          -2.24014766e-05, -2.24014766e-05, -2.24014766e-05,
          -2.24014766e-05, -2.24014766e-05, -2.06480745e-05,
          -1.21666308e-05, -2.30959998e-08, 0., 0., 0., 0.,
          1.89780292e-06, 8.35417450e-06, 1.97410063e-05, 2.24014766e-05,
          2.24014766e-05, 2.23853949e-05, 2.22728122e-05, 1.15563525e-05,
          2.12531704e-05, 2.24014766e-05, 2.24014766e-05, 1.97410063e-05,
          1.24534326e-05, 4.28073145e-06, -1.55736798e-05,
          -2.24014766e-05, -2.24014766e-05, -2.24014766e-05,
          -2.24014766e-05, -2.24014766e-05, -1.88518661e-05,
          -9.55848645e-06, -1.04930723e-06, 0., 0., 0., 0., 0.,
          1.89780292e-06, 8.35417450e-06, 1.97410063e-05, 2.24014766e-05,
          2.24014766e-05, 2.19993999e-05, 1.86862871e-05, 1.15563525e-05,
          1.86438119e-05, 2.18696332e-05, 2.24014766e-05, 1.97410063e-05,
          1.16472156e-05, 7.01321824e-07, -1.66174104e-05,
          -2.24014766e-05, -2.24014766e-05, -2.24014766e-05,
          -2.24014766e-05, -2.24014766e-05, -1.70929434e-05,
          -7.13129930e-06, 0., 0., 0., 0., 0., 0., 1.89780292e-06,
          1.23887357e-05, 2.15536347e-05, 2.24014766e-05, 2.24014766e-05,
          2.19672347e-05, 1.83002940e-05, 1.15563525e-05, 1.74378747e-05,
          2.16369517e-05, 2.24014766e-05, 1.86822745e-05, 4.25675671e-06,
          -1.09880684e-05, -1.66007903e-05, -2.24014766e-05,
          -2.24014766e-05, -2.24014766e-05, -2.24014766e-05,
          -1.90972569e-05, -7.89300429e-06, -1.19329343e-07, 0., 0., 0.,
          0., 0., 0., 3.08965332e-06, 1.57559534e-05, 2.24014766e-05,
          2.24014766e-05, 2.24014766e-05, 2.19672347e-05, 1.83002940e-05,
          1.15563525e-05, 1.74637844e-05, 2.16369517e-05, 2.24014766e-05,
          1.12135112e-05, -3.62038168e-06, -1.15563525e-05,
          -1.66007903e-05, -2.24014766e-05, -2.24014766e-05,
          -2.24014766e-05, -1.97469853e-05, -6.96966117e-06,
          -3.88845734e-07, 0., 0., 0., 0., 0., 0., 0., 4.95515815e-06,
          1.82173826e-05, 2.24014766e-05, 2.24014766e-05, 2.24014766e-05,
          2.19672347e-05, 1.83002940e-05, 1.15563525e-05, 1.74637844e-05,
          2.16369517e-05, 1.30684439e-05, 3.58229886e-06,
          -1.96336919e-06, -8.13841234e-06, -1.58270504e-05,
          -2.16037115e-05, -2.24014766e-05, -2.02408446e-05,
          -6.16060288e-06, -6.99947520e-07, 0., 0., 0., 0., 0., 0., 0.,
          1.44747685e-06, 6.40263488e-06, 1.82173826e-05, 2.24014766e-05,
          2.24014766e-05, 2.24014766e-05, 2.19672347e-05, 1.83002940e-05,
          9.12780797e-06, 1.38122732e-05, 1.15919602e-05, 3.62035462e-06,
          8.47032947e-21, 8.47032947e-21, -2.72962848e-06,
          -1.41133705e-05, -1.98253601e-05, -2.24014766e-05,
          -5.60174294e-06, -7.29984947e-07, 0., 0., 0., 0., 0., 0., 0.,
          0., 2.27500618e-06, 8.81056440e-06, 1.90209612e-05,
          2.24014766e-05, 2.24014766e-05, 2.24014766e-05, 2.19672347e-05,
          1.83002940e-05, 7.45516809e-06, 2.62848721e-06, 1.34733261e-06,
          8.47032947e-21, 8.47032947e-21, 8.47032947e-21,
          -1.52632799e-06, -1.15680141e-05, -1.74929792e-05,
          -1.18082216e-05, -1.46192622e-06, 0., 0., 0., 0., 0., 0., 0.,
          0., 1.40652003e-06, 5.37720098e-06, 1.73156623e-05,
          2.24014766e-05, 2.24014766e-05, 2.24014766e-05, 2.24014766e-05,
          2.19511512e-05, 1.83002940e-05, 7.45516809e-06,
          -6.85356054e-06, -1.69433474e-06, 8.47032947e-21,
          8.47032947e-21, 8.47032947e-21, -2.92359541e-08,
          -2.24395831e-06, -1.02690528e-05, 1.98445082e-06,
          -6.17323650e-08, 0., 0., 0., 0., 0., 0., 0., 1.30272917e-06,
          4.73981481e-06, 1.67948292e-05, 2.22226608e-05, 2.24014766e-05,
          2.24014766e-05, 2.24014766e-05, 2.20476504e-05, 2.02463452e-05,
          1.83002940e-05, -5.38630502e-06, -1.15436924e-05,
          -5.08737276e-06, -8.64245749e-07, 8.47032947e-21,
          8.47032947e-21, 8.47032947e-21, -1.01033527e-06,
          -7.01267345e-06, 5.38347922e-06, 3.48214485e-06,
          1.26864290e-06, -2.98538134e-06, -6.06010190e-06,
          -6.06010190e-06, -6.06010190e-06, -2.17172010e-06,
          -8.25941893e-09, 1.63221432e-06, 4.80677863e-06,
          1.12198277e-05, 1.46687353e-05, 1.46687353e-05, 1.48612025e-05,
          1.46509065e-05, 1.28544025e-05, 9.34660784e-06, 4.91603987e-06,
          -8.85245663e-06, -1.83811426e-05, -1.06544639e-05,
          -4.04412503e-06, -9.47346280e-07, 8.47032947e-21,
          8.47032947e-21, 8.47032947e-21, -1.56806175e-06,
          1.10279916e-06, -8.18142098e-07, -1.74682077e-06,
          -4.46916556e-06, -9.91302477e-06, -1.56276383e-05,
          -1.17964364e-05, -6.83037706e-06, -5.46731098e-06,
          -5.46731098e-06, -2.68378130e-06, 8.88797501e-07,
          2.46929471e-06, 2.46929471e-06, 2.33076457e-06, 1.03741672e-06,
          -2.08141955e-06, -4.98502504e-06, -9.18988007e-06,
          -8.85245663e-06, -2.02230076e-05, -1.78679438e-05,
          -1.12350781e-05, -4.42246755e-06, 8.47032947e-21,
          8.47032947e-21, 8.47032947e-21, 8.47032947e-21, 8.47032947e-21,
          8.47032947e-21, 8.47032947e-21, -7.01662884e-07,
          -3.52227585e-06, -1.00440784e-05, -7.71916348e-06,
          -5.48845082e-06, -5.15604825e-06, -5.15604825e-06,
          -2.02096362e-06, 8.47032947e-21, 8.47032947e-21,
          -4.50326127e-07, -2.10688290e-06, -4.69950828e-06,
          -8.80384687e-06, -1.36225999e-05, -1.45306003e-05,
          -1.27843296e-05, -2.08606089e-05, -2.24014766e-05,
          -1.74527067e-05, -9.35064327e-06, -1.08511256e-06,
          8.47032947e-21, 8.47032947e-21, 8.47032947e-21, 8.47032947e-21,
          8.47032947e-21, 8.47032947e-21, 8.47032947e-21,
          -2.59097916e-08, -3.36827270e-07, -3.36827270e-07,
          -3.36827270e-07, -3.36827270e-07, -3.36827270e-07,
          -1.29548951e-07, 8.47032947e-21, -4.18159971e-07,
          -2.15513205e-06, -4.10118446e-06, -6.80208495e-06,
          -1.42188937e-05, -2.13806379e-05, -1.79876133e-05,
          -1.95854063e-05, -2.19232770e-05, -2.24014766e-05,
          -2.07950707e-05, -1.76164031e-05, -6.23256346e-06,
          -1.97293184e-06, -1.05240929e-06, 8.47032947e-21,
          8.47032947e-21, 8.47032947e-21, 8.47032947e-21, 8.47032947e-21,
          8.47032947e-21, 8.47032947e-21, 8.47032947e-21, 8.47032947e-21,
          8.47032947e-21, 8.47032947e-21, -3.85993815e-07,
          -6.43323006e-07, -2.25163058e-06, -4.61640775e-06,
          -6.92182675e-06, -1.10444826e-05, -1.69863306e-05,
          -2.24014766e-05, -2.24014766e-05, -7.27849601e-06,
          -1.72144446e-05, -2.02730025e-05, -2.07012090e-05,
          -1.85377485e-05, -1.22656647e-05, -9.25909353e-06,
          -4.63356537e-06, 3.08835894e-07, 5.20359436e-07,
          -7.71784130e-07, 1.07596179e-06, 1.79265328e-06,
          1.72652881e-06, 1.33035849e-06, 1.80813436e-06, 2.79585220e-06,
          2.61065520e-06, 1.31427544e-06, -9.37355139e-07,
          -2.94998176e-06, -4.51429833e-06, -5.94823496e-06,
          -1.19307506e-05, -1.47678657e-05, -1.74883935e-05,
          -2.04388816e-05, -1.91272466e-05, 0., 0., -6.46093577e-06,
          -8.85245663e-06, -8.85245663e-06, -8.85245663e-06,
          -5.02847752e-06, -1.26388022e-06, 4.49477602e-06,
          5.22895471e-06, -5.57535623e-06, 7.79117272e-06,
          1.45306003e-05, 1.38430969e-05, 9.59258341e-06, 1.21331941e-05,
          1.73187127e-05, 1.63309960e-05, 9.44783642e-06, 9.44783642e-06,
          6.64463369e-06, -1.71921306e-06, -2.24546034e-06,
          -2.24546034e-06, -3.90368677e-06, -8.85245663e-06,
          -7.42912061e-06, 0. ]
      - [ 0., 0., 0., 0., 0., 0., 0., 2.30569935e-06, -8.81091239e-07,
          -2.75964430e-06, -7.76348134e-06, -1.50946480e-05,
          -1.50946480e-05, -1.47794235e-05, -3.80092933e-06,
          5.64987431e-06, -3.48778030e-06, -8.08383083e-06,
          -1.03171160e-05, 2.49475488e-06, 0., 0., 0., 0., 0., 0., 0.,
          0., 0., 0., 0., 0., 0., 1.34730101e-06, 9.86415125e-06,
          1.93844926e-06, -4.95273753e-07, 9.71686234e-08,
          -8.15462442e-07, -1.80738880e-06, -1.80738880e-06,
          -1.77236382e-06, -5.79038954e-07, 6.27292820e-07,
          -4.08528763e-07, -2.51832807e-06, -1.22151896e-05,
          -1.51203267e-05, -1.09226194e-05, -8.58260535e-07, 0., 0., 0.,
          0., 0., 0., 0., 0., 0., 2.69460202e-06, 2.66920870e-06,
          -2.00755585e-06, -4.24563905e-06, -2.20142852e-06,
          -4.01667677e-07, 4.23516474e-21, 4.23516474e-21,
          4.23516474e-21, 4.23516474e-21, 4.23516474e-21, 4.23516474e-21,
          4.23516474e-21, 4.23516474e-21, -6.04243724e-07,
          -2.54087718e-06, -6.00209160e-06, -1.25869456e-05,
          -1.06854795e-05, -7.29851308e-06, -2.83221038e-06, 0., 0., 0.,
          0., 0., 0., 0., 2.40086683e-06, 5.33923185e-06,
          -1.76945275e-06, -3.05940830e-06, -1.04295816e-06,
          4.23516474e-21, 4.23516474e-21, 4.23516474e-21, 4.23516474e-21,
          4.23516474e-21, 4.23516474e-21, 4.23516474e-21, 4.23516474e-21,
          4.23516474e-21, 4.23516474e-21, 4.23516474e-21,
          -6.76752961e-07, -6.67734685e-06, -1.18785392e-05,
          -1.33776575e-05, -8.40090797e-06, -3.54026315e-06, 0., 0., 0.,
          0., 2.69460202e-06, 4.59534704e-06, 2.72819443e-06,
          -1.89888098e-07, -9.96852691e-07, 4.23516474e-21,
          4.23516474e-21, 4.23516474e-21, 4.23516474e-21, 4.23516474e-21,
          4.23516474e-21, 1.21120536e-06, 5.28671535e-06, 3.84655721e-07,
          4.23516474e-21, 4.23516474e-21, 4.23516474e-21, 4.23516474e-21,
          4.23516474e-21, -1.35962671e-06, -5.89968568e-06,
          -1.21575995e-05, -1.62178385e-05, -8.94804816e-06, 0., 0., 0.,
          0., 6.12409531e-06, 4.55094414e-06, 3.83393996e-07,
          -9.96852691e-07, 4.23516474e-21, 4.23516474e-21,
          4.23516474e-21, 4.23516474e-21, 5.09419442e-06, 8.07074503e-06,
          5.30456191e-06, 1.39956364e-06, 7.60313014e-06, 6.44576994e-06,
          6.35531069e-06, 1.73616627e-06, -1.22481902e-06,
          4.23516474e-21, 4.23516474e-21, 4.23516474e-21,
          -8.21771437e-07, -6.21967274e-06, -1.44112755e-05,
          -1.61814132e-05, -6.29351416e-06, 0., 0., 0., 4.02867454e-06,
          -1.68012707e-06, -1.23367749e-06, 4.23516474e-21,
          4.23516474e-21, 4.23516474e-21, 3.75800823e-07, 6.02831005e-06,
          1.38963942e-05, 1.19073948e-05, 5.64515676e-06, 3.05331014e-06,
          6.16448142e-06, 6.04442994e-06, 6.93757966e-06, 2.58829073e-06,
          4.74296667e-06, 6.01467264e-06, -2.22001495e-06,
          -1.16846297e-06, -9.10490598e-08, -8.21771437e-07,
          -6.86286558e-06, -1.61488570e-05, -1.41351793e-05,
          -1.49191328e-06, 0., 1.33971889e-06, 1.23646510e-06,
          -3.52874935e-07, -4.38714409e-07, 4.23516474e-21,
          1.20200093e-06, 5.92631613e-06, 8.08309869e-06, 1.39485091e-05,
          1.23212340e-05, 5.58391730e-06, 1.56318592e-07, 1.56318592e-07,
          1.77819459e-07, 5.07413733e-06, 7.58512215e-06, 7.58512215e-06,
          1.07373680e-05, 9.04209992e-06, -6.33600257e-06,
          -4.54929886e-06, -3.03767649e-07, 4.23516474e-21,
          -1.04957917e-06, -8.58182193e-06, -1.07655196e-05,
          -2.33161040e-06, 0., 1.37380657e-05, 3.40940528e-06,
          -1.63071121e-07, 4.23516474e-21, 4.23516474e-21,
          3.34876245e-06, 1.47005185e-05, 1.08002869e-05, 1.02900995e-05,
          3.36563721e-06, 1.13330987e-06, 0., 0., 5.86194737e-08,
          1.44594696e-06, 1.50456651e-06, 1.50456651e-06, 1.50456651e-06,
          5.15365491e-06, -1.05232687e-06, -1.14459663e-05,
          -1.02102172e-06, 4.23516474e-21, -9.90959734e-07,
          -7.41383474e-06, -7.30958664e-06, -2.96099051e-06,
          -2.91088304e-06, 5.05233811e-06, 7.05074399e-06,
          1.64412870e-06, 2.34875515e-08, 1.08752465e-06, 2.79826781e-06,
          6.70289455e-06, 9.81861649e-06, 3.19914966e-06, 0., 0., 0., 0.,
          0., 0., 0., 0., 0., 4.08520555e-06, 6.29282340e-06,
          -4.61002173e-06, -1.30622951e-07, 8.31270874e-09,
          -9.90959734e-07, -6.83791995e-06, -3.72667751e-06,
          1.41936584e-06, -9.40392420e-06, 3.31481760e-06,
          9.12437099e-06, 8.68041843e-06, 5.13379791e-06, 7.66943231e-06,
          1.10630344e-05, 2.87128887e-06, 2.79571123e-06, 1.69188240e-07,
          0., 0., 0., 0., 0., 0., 0., 0., 0., 2.78376456e-06,
          5.52188476e-06, 1.08163958e-05, 1.58532259e-06, 1.26418593e-06,
          -9.66789955e-08, -1.28099668e-06, -4.03682270e-06,
          -7.78074025e-07, -3.72855220e-06, 2.55918239e-05,
          3.26979825e-05, 3.29929026e-05, 3.22413034e-05, 3.18185266e-05,
          2.46802538e-05, 5.96854215e-06, 3.38376481e-07, 0., 0., 0., 0.,
          0., 0., 0., 0., 0., 0., 3.90796487e-07, 2.75719049e-06,
          5.56276746e-06, -7.83523410e-06, -2.91195852e-06,
          4.23516474e-21, -1.45018490e-07, -1.68203167e-06,
          -5.66055041e-06, 1.01437217e-06, 2.55918239e-05,
          3.39174076e-05, 3.45519147e-05, 3.45519147e-05, 3.23559070e-05,
          1.83747452e-05, 4.03496233e-06, 0., 0., 0., 0., 0., 0., 0., 0.,
          0., 0., 0., 0., 6.63009530e-07, 1.64501148e-06,
          -6.66528058e-06, -2.17327556e-06, 4.23516474e-21,
          4.23516474e-21, -1.45473609e-06, -7.13156078e-06,
          4.44386569e-06, 2.55918239e-05, 3.39174076e-05, 3.45519147e-05,
          3.45519147e-05, 3.03845409e-05, 1.14548311e-05, 2.81831376e-06,
          0., 0., 0., 0., 0., 0., 0., 0., 0., 0., 0., 0., 0.,
          2.99282897e-06, -6.10212464e-06, -3.86107331e-06,
          -8.19441539e-07, 4.23516474e-21, -1.36153437e-06,
          -4.93618518e-06, 4.44386569e-06, 2.86130435e-05,
          3.40756269e-05, 3.45519147e-05, 3.45519147e-05, 3.03845409e-05,
          1.18787439e-05, 1.99513033e-06, 0., 0., 0., 0., 0., 0., 0., 0.,
          0., 0., 0., 0., 0., 2.44212129e-06, -1.34580050e-05,
          -6.82103064e-06, -1.38091070e-06, 4.23516474e-21,
          -2.60072215e-06, -1.14088471e-05, 4.44386569e-06,
          3.17551094e-05, 3.42557832e-05, 3.45519147e-05, 3.45519147e-05,
          3.03845409e-05, 1.25071574e-05, 2.16431840e-06, 0., 0., 0., 0.,
          0., 0., 0., 0., 0., 0., 0., 0., -6.48301750e-07,
          -3.00435727e-06, -1.81582764e-05, -7.25372956e-06,
          -1.38091070e-06, 4.23516474e-21, -8.44059798e-07,
          -3.67146754e-06, 1.15637276e-05, 3.17551094e-05,
          3.42557832e-05, 3.45519147e-05, 3.45519147e-05, 3.03845409e-05,
          9.46176897e-06, 1.29420755e-06, 0., 0., 0., 0., 0., 0., 0., 0.,
          0., 0., 0., -2.34875515e-08, -4.30631826e-06, -1.66125192e-05,
          -2.29015805e-05, -7.25372956e-06, -1.38091070e-06,
          4.23516474e-21, 4.21570257e-06, 8.94184177e-06, 1.44746109e-05,
          3.17551094e-05, 3.42557832e-05, 3.45519147e-05, 3.45519147e-05,
          3.03845409e-05, 1.03318807e-05, 1.53590497e-06, 0., 0., 0., 0.,
          0., 0., 0., 0., 0., 0., 0., -3.41605073e-06, -1.79039216e-05,
          -2.75873062e-05, -2.36956093e-05, -7.25372956e-06,
          -1.38091070e-06, 3.94943163e-06, 1.37774132e-05,
          1.88413651e-05, 1.44746109e-05, 3.17551094e-05, 3.42557832e-05,
          3.45519147e-05, 3.45519147e-05, 3.03845409e-05, 1.44165679e-05,
          2.72022271e-06, 0., 0., 0., 0., 0., 0., 0., 0., 0.,
          -4.64408345e-07, -4.33719879e-06, -1.34689799e-05,
          -2.97710249e-05, -3.18944985e-05, -2.40103000e-05,
          -7.25372956e-06, -1.38091070e-06, 7.78417416e-06,
          2.04216794e-05, 2.24602991e-05, 1.44746109e-05, 3.17551094e-05,
          3.42557832e-05, 3.45519147e-05, 3.45519147e-05, 3.03845409e-05,
          1.44165679e-05, 3.29055138e-06, 5.59360899e-07, 0., 0., 0., 0.,
          0., 0., 0., 0., -9.60693524e-06, -2.32835264e-05,
          -3.01580221e-05, -3.45284279e-05, -3.38093996e-05,
          -2.59252029e-05, -7.25372956e-06, 2.16785406e-06,
          1.59414485e-05, 2.94344118e-05, 2.56648309e-05, 1.44746109e-05,
          2.95275695e-05, 3.40213046e-05, 3.45519147e-05, 3.45519147e-05,
          3.03845409e-05, 1.44165679e-05, 3.78410505e-06, 1.06388245e-06,
          -4.69751029e-07, -1.15846606e-05, -1.52083048e-05,
          -1.52083048e-05, -1.52083048e-05, -1.20331451e-05,
          -6.06812409e-06, -1.08633121e-05, -2.72545203e-05,
          -3.45519147e-05, -3.45519147e-05, -3.45519147e-05,
          -3.45519147e-05, -2.66872557e-05, -9.91771140e-06,
          9.29449288e-06, 2.70791425e-05, 3.44794062e-05, 3.19668579e-05,
          1.44746109e-05, 2.20835245e-05, 3.34513716e-05, 3.45519147e-05,
          3.45519147e-05, 3.03845409e-05, 1.44165679e-05, 2.72022271e-06,
          0., -2.14553233e-06, -2.49670338e-05, -3.45519147e-05,
          -3.45519147e-05, -3.45519147e-05, -3.28947644e-05,
          -2.23584029e-05, -3.11276854e-05, -3.45519147e-05,
          -3.45519147e-05, -3.45519147e-05, -3.45519147e-05,
          -3.45519147e-05, -2.66872557e-05, -8.29624241e-06,
          1.42098370e-05, 2.96373710e-05, 3.45519147e-05, 3.27402886e-05,
          1.44746109e-05, 2.06091700e-05, 3.33898315e-05, 3.45519147e-05,
          3.45519147e-05, 3.03845409e-05, 1.44165679e-05, 2.72022271e-06,
          0., -3.62736478e-06, -2.56462063e-05, -3.45519147e-05,
          -3.45519147e-05, -3.45519147e-05, -3.45519147e-05,
          -3.45519147e-05, -3.45519147e-05, -3.45519147e-05,
          -3.45519147e-05, -3.45519147e-05, -3.45519147e-05,
          -3.45519147e-05, -2.39392120e-05, 4.18602986e-06,
          2.58324890e-05, 3.45519147e-05, 3.45519147e-05, 3.27402886e-05,
          1.44746109e-05, 2.06091700e-05, 3.33898315e-05, 3.45519147e-05,
          3.45519147e-05, 3.03845409e-05, 1.63314708e-05, 4.18570971e-06,
          0., -3.62736478e-06, -2.52455393e-05, -3.42657222e-05,
          -3.45519147e-05, -3.45519147e-05, -3.44946748e-05,
          -3.39795333e-05, -3.44374384e-05, -3.45519147e-05,
          -3.45519147e-05, -3.45519147e-05, -3.45519147e-05,
          -3.45519147e-05, -2.48082524e-05, 5.65622258e-06,
          2.67333344e-05, 3.45519147e-05, 3.45519147e-05, 3.27052658e-05,
          1.44746109e-05, 2.06091700e-05, 3.33898315e-05, 3.45519147e-05,
          3.45519147e-05, 3.10067080e-05, 1.88109771e-05, 5.02592184e-06,
          0., -3.39248936e-06, -1.40292132e-05, -2.48912802e-05,
          -3.39177495e-05, -3.45519147e-05, -3.35216282e-05,
          -2.15588570e-05, -3.15755315e-05, -3.45519147e-05,
          -3.45519147e-05, -3.45519147e-05, -3.45519147e-05,
          -3.45519147e-05, -2.66872557e-05, -3.15304902e-07,
          2.38617122e-05, 3.45519147e-05, 3.45519147e-05, 3.27052658e-05,
          1.44746109e-05, 2.06091700e-05, 3.33898315e-05, 3.45519147e-05,
          3.45519147e-05, 3.17654521e-05, 2.04802091e-05, 5.02592184e-06,
          0., -3.08715107e-06, -1.03872635e-05, -1.48826730e-05,
          -1.88283775e-05, -1.97209047e-05, -1.96064284e-05,
          -1.80037605e-05, -1.93202377e-05, -2.83991976e-05,
          -3.45519147e-05, -3.45519147e-05, -3.45519147e-05,
          -3.45519147e-05, -2.66872557e-05, -1.14219656e-05,
          8.78462833e-06, 2.68494277e-05, 3.45519147e-05, 3.27402886e-05,
          1.44746109e-05, 2.06091700e-05, 3.33788630e-05, 3.45519147e-05,
          3.45519147e-05, 3.17654521e-05, 2.04802091e-05, 5.02592184e-06,
          0., -1.60531852e-06, -3.39038820e-06, -4.13777707e-06,
          -4.13777707e-06, -4.13777707e-06, -4.26126326e-06,
          -5.88201738e-06, -6.02093905e-06, -1.41376895e-05,
          -2.17214820e-05, -2.71109566e-05, -3.45519147e-05,
          -3.45519147e-05, -2.66872557e-05, -1.33778249e-05,
          -1.50246638e-06, 1.19109736e-05, 2.58915315e-05,
          3.27402886e-05, 1.44746109e-05, 2.06091700e-05, 3.33898315e-05,
          3.45519147e-05, 3.45519147e-05, 3.17654521e-05, 2.04802091e-05,
          5.02592184e-06, 0., 0., 0., 0., 0., 0., -2.00664815e-07,
          -2.67038581e-06, -2.87105058e-06, -4.75919069e-06,
          -6.96440065e-06, -1.61400367e-05, -2.63536367e-05,
          -3.45519147e-05, -2.66872557e-05, -1.41565433e-05,
          -5.51642097e-06, 3.40490828e-06, 1.33646354e-05,
          2.23708757e-05, 1.44746109e-05, 2.06091700e-05, 3.33898315e-05,
          3.45519147e-05, 3.45519147e-05, 3.17199265e-05, 2.03891595e-05,
          5.02592184e-06, 0., 0., 0., 0., 0., 0., 0., 0., 0., 0.,
          -1.85229067e-06, -7.36269521e-06, -2.01956609e-05,
          -2.60336947e-05, -2.60576362e-05, -1.36925864e-05,
          -4.83476060e-06, 4.23516474e-21, 2.60393836e-06,
          6.07876564e-06, 5.37374672e-06, 2.06091700e-05, 3.33898315e-05,
          3.45519147e-05, 3.45519147e-05, 3.04907644e-05, 1.76728627e-05,
          5.02592184e-06, 0., 0., 0., 0., 0., 0., 0., 0., 0., 0.,
          -2.93279356e-07, -2.22324570e-06, -7.43898545e-06,
          -1.93336673e-05, -1.83500269e-05, -8.87723945e-06,
          -2.89268723e-06, 4.23516474e-21, -1.04787057e-06,
          -4.91761557e-06, -5.54951839e-06, 2.06091700e-05,
          3.33898315e-05, 3.45519147e-05, 3.45519147e-05, 3.03845409e-05,
          1.74452398e-05, 5.02592184e-06, 0., 0., 0., 0., 0., 0., 0., 0.,
          0., 0., 0., 0., -2.02905426e-06, -1.05247627e-05,
          -1.19736014e-05, -4.17592946e-06, -3.82461451e-07,
          4.23516474e-21, 4.23516474e-21, 3.30761363e-10,
          -1.01518599e-05, 2.06091700e-05, 3.33702919e-05,
          3.45519147e-05, 3.45519147e-05, 3.03845409e-05, 1.74452398e-05,
          5.02592184e-06, 0., 0., 0., 0., 0., 0., 0., 0., 0., 0., 0., 0.,
          -4.78508412e-07, -3.03885167e-06, -1.17336613e-05,
          1.22419681e-06, 2.42220744e-06, 4.23516474e-21, 4.23516474e-21,
          -1.35649472e-07, -9.25568656e-06, 2.06091700e-05,
          3.33898315e-05, 3.45519147e-05, 3.45519147e-05, 3.03845409e-05,
          1.74452398e-05, 5.55349743e-06, 5.27575253e-07, 0., 0., 0., 0.,
          0., 0., 0., 0., 0., 0., 0., 0., -7.89214937e-07,
          -8.86510225e-06, 1.85357692e-06, 2.42220744e-06,
          4.23516474e-21, 4.23516474e-21, 2.39940690e-09,
          -4.14170518e-06, 2.11904662e-05, 3.34446704e-05,
          3.45519147e-05, 3.45519147e-05, 3.03845409e-05, 1.74452398e-05,
          7.50747949e-06, 2.48155766e-06, 0., 0., 0., 0., 0., 0., 0., 0.,
          0., 0., 0., 0., -2.77843611e-07, -1.42731665e-07,
          4.65601852e-06, 2.42220744e-06, 4.23516474e-21, 4.23516474e-21,
          -1.04481205e-06, -1.11119825e-05, 2.34059735e-05,
          3.16425467e-05, 3.21092084e-05, 3.21092084e-05, 2.79418346e-05,
          2.06007680e-05, 1.12053731e-05, 2.65741619e-06, 0., 0., 0., 0.,
          0., 0., 0., 0., 0., 0., 0., 0., -2.77843611e-07,
          1.90068533e-06, 1.00795096e-05, 4.32067691e-06, 4.23516474e-21,
          4.23516474e-21, -9.45673719e-07, -8.93136257e-06,
          2.04755215e-05, 2.58193140e-05, 2.53521175e-05, 2.51231650e-05,
          2.31561080e-05, 1.73163189e-05, 1.00395418e-05, 3.16498085e-06,
          0., 0., 0., 0., 0., 0., 0., 0., 0., 0., 0., 0.,
          -3.17179854e-07, 1.13782687e-06, 1.18228527e-05,
          4.97971814e-06, 4.23516474e-21, 4.23516474e-21,
          -7.37014489e-07, -8.98389135e-06, 6.02127375e-06,
          1.46523980e-05, 6.04203660e-06, 1.06231835e-06, 6.04203660e-06,
          1.19482211e-05, 1.16180845e-05, 4.30095906e-06, 0., 0., 0., 0.,
          0., 0., 0., 0., 0., 0., 0., 0., -9.46559965e-07,
          -8.88024260e-06, -5.34085586e-07, 2.28952558e-07,
          4.23516474e-21, 4.23516474e-21, -3.21060526e-07,
          -9.10532253e-06, 1.21668165e-06, 3.51091740e-06,
          6.86857675e-07, 4.23516474e-21, 6.86857675e-07, 8.95645144e-07,
          1.08709162e-06, 3.55291400e-06, 0., 0., 0., 0., 0., 0., 0., 0.,
          0., 0., 0., -1.54357551e-07, 1.20084508e-06, -5.58666488e-06,
          -9.94789048e-07, 4.23516474e-21, 4.23516474e-21,
          4.23516474e-21, -1.66702975e-07, -8.36440631e-06,
          1.28307579e-06, -1.82080697e-07, -5.08035441e-07,
          4.23516474e-21, 4.23516474e-21, 2.16375497e-06, 7.26175676e-06,
          5.00167334e-06, 0., 0., 0., 0., 0., 0., 0., 0., 0., 0., 0.,
          -8.33530805e-07, -2.56301973e-06, 4.07198831e-06,
          1.43465036e-06, 4.23516474e-21, 4.23516474e-21, 4.23516474e-21,
          2.20392940e-06, 2.69954012e-06, -2.28905651e-06,
          -2.48677520e-06, -8.98831900e-07, 4.23516474e-21,
          4.23516474e-21, 6.29380111e-07, 1.40518193e-06, 1.83540351e-06,
          1.17405079e-06, 0., 0., 0., 0., 0., 0., 0., 0., 0.,
          -1.08050290e-06, 5.99825682e-07, 1.06128414e-06,
          1.26662155e-06, 9.15810233e-07, 4.23516474e-21, 4.23516474e-21,
          4.23516474e-21, 4.88866272e-06, 1.52216435e-05,
          -3.10153723e-06, 6.84799943e-06, 3.29051431e-06,
          4.23516474e-21, 4.23516474e-21, 4.23516474e-21, 3.68219361e-07,
          2.78803327e-07, -3.28347392e-06, -1.56065244e-06,
          -1.11137444e-06, 0., 0., 0., 0., 0., 0., -1.69856321e-06,
          -4.18295485e-06, 1.36857534e-06, 9.19425929e-06,
          4.40305172e-07, 4.23516474e-21, 4.23516474e-21, 4.23516474e-21,
          8.26459370e-07, 2.54662291e-06, 1.64374724e-05,
          -3.13255919e-06, 3.21902394e-06, 6.94647952e-06,
          4.56051293e-06, 4.23516474e-21, 4.23516474e-21, 4.23516474e-21,
          -2.45174670e-06, -8.10560323e-06, -1.62210540e-07,
          2.15505224e-06, 6.15797762e-06, 4.11444762e-06, 2.25337703e-06,
          2.25337703e-06, 8.67611391e-07, 3.94696144e-06, 5.45073988e-07,
          -3.45198623e-06, -1.32487503e-06, 3.32145373e-06,
          4.57905116e-07, 4.23516474e-21, 4.23516474e-21, 1.31065110e-06,
          3.66330391e-06, 2.04426738e-06, 7.73567808e-06, 0.,
          -2.31922559e-06, 7.23915355e-06, 9.93082358e-06,
          1.66761617e-06, 4.23516474e-21, 4.23516474e-21, 4.23516474e-21,
          -1.92909010e-06, 1.29870671e-06, 1.37466145e-06,
          4.67247219e-06, 4.67640939e-06, -2.42459168e-06,
          -2.77918116e-06, 6.50994309e-07, 2.71673161e-06,
          -1.47612946e-06, -6.49622007e-06, -4.08989308e-06,
          -1.19192930e-06, 4.23516474e-21, 4.23516474e-21,
          -9.80698587e-07, 4.97519704e-06, 7.50177423e-06,
          3.13009173e-06, 2.54017709e-06, 0., 0., 4.64699770e-06,
          5.91712023e-06, 5.41817190e-06, 5.96047676e-06, 4.23516474e-21,
          4.23516474e-21, 4.23516474e-21, 4.23516474e-21, 4.23516474e-21,
          4.23516474e-21, -1.17496188e-06, -5.47830223e-06,
          -7.33288789e-06, -4.62331673e-06, -3.88842500e-06,
          -3.88842500e-06, -3.88842500e-06, -1.52410632e-06,
          4.23516474e-21, 4.23516474e-21, -9.80698587e-07,
          2.30239675e-06, 9.47701210e-06, 1.25660163e-05, 3.47808873e-06,
          0., 0., 0., 0., 8.80754271e-07, 9.36551260e-06, 1.41476621e-05,
          5.47612262e-06, 2.86190698e-07, 4.23516474e-21, 4.23516474e-21,
          4.23516474e-21, 4.23516474e-21, 4.23516474e-21,
          -1.95398240e-08, -2.54017721e-07, -2.54017721e-07,
          -2.54017721e-07, -2.54017721e-07, -2.54017721e-07,
          -9.76991217e-08, 4.23516474e-21, -9.10648737e-07,
          7.37875837e-07, 1.08064196e-05, 1.32457017e-05, 6.95952667e-06,
          2.34477895e-07, 0., 0., 0., 0., 1.21146911e-06, 1.29956391e-07,
          9.75540388e-06, 1.55509697e-05, -6.07027175e-08,
          -2.12447802e-07, 4.23516474e-21, 4.23516474e-21,
          4.23516474e-21, 4.23516474e-21, 4.23516474e-21, 4.23516474e-21,
          4.23516474e-21, 4.23516474e-21, 4.23516474e-21, 4.23516474e-21,
          -2.10979294e-07, 3.18916614e-06, 2.86090449e-06,
          6.29724491e-06, 9.62739796e-06, 7.67725760e-06, 4.08382311e-06,
          0., 0., 0., 0., 0., 0., -8.80985283e-07, -6.35882714e-07,
          4.31485290e-07, -5.29880163e-06, 3.78963620e-07,
          1.82733640e-06, 1.01471346e-06, -4.89111073e-07,
          4.23516474e-21, -3.50249501e-08, -8.05573904e-07,
          -8.40598830e-07, -6.29210888e-07, 1.32864682e-06,
          2.69204907e-06, 6.94298251e-07, 1.20927225e-05, 1.91650888e-05,
          1.20191371e-05, 7.24857045e-06, 4.47461980e-06, 2.42293822e-06,
          0., 0., 0., 0., 0., 0., 0., 0., 1.94936342e-06,
          -4.34003732e-06, 2.17279126e-06, 9.57466364e-06,
          4.38444522e-06, -5.96947439e-06, 4.23516474e-21,
          -3.15224554e-07, -8.61613808e-06, -8.93136257e-06,
          -7.54559687e-06, 4.41784186e-06, 1.31970528e-05,
          1.55876805e-05, 1.35339160e-05, 5.53382370e-06, 4.98265535e-06,
          4.98265535e-06, 3.73210651e-06, 0., 0., 0. ]
      - [ 0., 0., 0., 0., 0., 0., 0., 1.87183355e-06, 4.04506409e-06,
          7.32253011e-06, 6.32700130e-06, 4.58119757e-06, 4.58119757e-06,
          4.72057764e-06, 8.39092081e-06, 8.51448112e-06, 2.19426124e-06,
          -8.68847292e-06, -1.17844975e-05, -1.32519772e-05,
          -1.32519772e-05, -1.32519772e-05, -1.32519772e-05,
          -6.85984696e-06, 0., 0., 0., 0., 0., 0., 0., 0., 0., 0.,
          3.20525078e-06, 6.73415889e-06, 1.05844765e-05, 1.25730094e-05,
          1.24148892e-05, 1.21396415e-05, 1.21396415e-05, 1.21551284e-05,
          1.24958351e-05, 9.28628924e-06, 1.80455038e-06,
          -2.61549258e-06, -8.68323423e-06, -1.18411963e-05,
          -1.30405351e-05, -1.32519772e-05, -1.32519772e-05,
          -6.85984696e-06, 0., 0., 0., 0., 0., 0., 0., 0.,
          8.88327804e-07, 3.33687535e-06, 6.44302281e-06, 1.07526812e-05,
          1.28132597e-05, 1.32519772e-05, 1.32519772e-05, 1.32519772e-05,
          1.32519772e-05, 1.32519772e-05, 1.32519772e-05, 8.78268293e-06,
          -1.69406589e-21, -4.62909469e-07, -1.64022129e-06,
          -4.58444310e-06, -1.06354146e-05, -1.28412912e-05,
          -1.30039389e-05, -6.85984696e-06, 0., 0., 0., 0., 0., 0., 0.,
          1.58629959e-07, 4.90518232e-06, 1.02988706e-05, 1.13795049e-05,
          1.27077437e-05, 1.32519772e-05, 1.32519772e-05, 1.32519772e-05,
          1.32519772e-05, 1.32519772e-05, 1.32519772e-05, 1.12252046e-05,
          5.76850789e-06, -1.69406589e-21, -1.69406589e-21,
          -1.69406589e-21, -5.18458592e-07, -5.04918034e-06,
          -1.08649010e-05, -1.26655923e-05, -6.60977594e-06, 0., 0., 0.,
          0., 0., 0., 0., 4.49108984e-06, 9.69738267e-06, 1.27303265e-05,
          1.32519772e-05, 1.32519772e-05, 1.32519772e-05, 1.32519772e-05,
          1.32519772e-05, 1.32519772e-05, 1.32519772e-05, 1.21086696e-05,
          6.18425611e-06, -1.69406589e-21, -1.69406589e-21,
          -1.69406589e-21, -1.69406589e-21, -1.69406589e-21,
          -1.06841401e-06, -4.20001015e-06, -9.08732181e-06,
          -6.50284755e-06, 0., 0., 0., 0., 0., 0., 3.81901555e-06,
          9.14545762e-06, 1.27303265e-05, 1.32519772e-05, 1.32519772e-05,
          1.32519772e-05, 1.32519772e-05, 1.32519772e-05, 1.32519772e-05,
          1.27864050e-05, 1.09234243e-05, 6.12673693e-06, 2.02323392e-07,
          -6.24461205e-10, -1.69406589e-21, -1.69406589e-21,
          -1.69406589e-21, -1.69406589e-21, -1.69406589e-21,
          -6.29556894e-07, -4.41155589e-06, -3.24523580e-06,
          2.80567747e-07, 2.29740266e-07, 0., 0., 0., 2.96316648e-06,
          8.53614983e-06, 1.27108906e-05, 1.32519772e-05, 1.32519772e-05,
          1.32519772e-05, 1.32519772e-05, 1.32519772e-05, 1.24158723e-05,
          9.47398712e-06, 7.88948546e-06, 6.73167597e-06, 8.76099307e-07,
          -3.42198450e-06, -2.58121804e-06, -2.57969145e-06,
          -8.27199074e-07, -7.72577877e-08, -1.69406589e-21,
          -1.69406589e-21, -1.69406589e-21, -6.29556894e-07,
          1.44886872e-06, 3.01611749e-06, 4.67612921e-07, 2.11442369e-07,
          0., 0., 8.00353791e-06, 1.25420102e-05, 1.31706529e-05,
          1.32519772e-05, 1.32519772e-05, 1.32519772e-05, 1.32514915e-05,
          1.23528152e-05, 9.57221346e-06, 4.46270633e-06, 1.26903970e-07,
          -5.06995002e-06, -1.05917534e-05, -7.57210773e-06,
          -5.52215351e-06, -5.52215351e-06, -4.11593282e-06,
          -1.66649568e-06, -1.95593884e-07, -9.14894827e-08,
          -1.69406589e-21, -1.69406589e-21, 5.58536976e-06,
          6.95084964e-06, 2.23746179e-06, 4.63546741e-07, 0.,
          4.68201461e-06, 1.22463734e-05, 1.31867100e-05, 1.32519772e-05,
          1.32519772e-05, 1.32519772e-05, 1.22608299e-05, 1.00692450e-05,
          7.14043153e-06, 2.64832215e-06, 9.20886407e-07, 0.,
          -8.73071440e-06, -1.32043879e-05, -1.20781151e-05,
          -1.20305267e-05, -1.20305267e-05, -1.20296936e-05,
          -7.09281085e-06, -1.25283646e-06, -3.21229749e-07,
          -8.13239893e-08, -1.69406589e-21, 5.63295862e-06,
          7.51062817e-06, 3.75515629e-06, 4.63546741e-07, 0.,
          7.99416739e-06, 1.29339478e-05, 1.32519772e-05, 1.32519772e-05,
          1.32519772e-05, 1.22763167e-05, 9.46688760e-06, 6.39900691e-06,
          1.67379937e-06, 0., 0., -2.23464713e-06, -9.71811642e-06,
          -1.32519772e-05, -1.32519772e-05, -1.32519772e-05,
          -1.32519772e-05, -1.32519772e-05, -8.91526997e-06,
          -3.08674021e-06, -1.26180100e-06, -2.78534657e-07,
          -1.69406589e-21, 5.63295862e-06, 7.97957000e-06,
          5.47300533e-06, 1.91397339e-06, 1.07754282e-07, 7.99416739e-06,
          1.29359805e-05, 1.32519772e-05, 1.32519772e-05, 1.32519772e-05,
          1.08515424e-05, 7.08855896e-06, 1.83936413e-06, 1.29614648e-07,
          0., -3.63779776e-07, -1.02378017e-05, -1.32519772e-05,
          -1.32519772e-05, -1.32519772e-05, -1.30960716e-05,
          -1.29401660e-05, -1.32519772e-05, -1.07878486e-05,
          -7.71685063e-06, -2.37349741e-06, -3.13520218e-07,
          -3.86288939e-08, 6.31806461e-06, 1.22706087e-05,
          7.79741094e-06, 4.04940329e-06, 5.18440402e-07, 8.00408907e-06,
          1.29370219e-05, 1.32519772e-05, 1.32519772e-05, 1.32519772e-05,
          1.08515424e-05, 3.93453183e-06, 2.59229296e-07, 0., 0.,
          -9.77008494e-06, -1.27842604e-05, -1.32519772e-05,
          -1.32519772e-05, -1.32519772e-05, -9.45827378e-06,
          -4.67716836e-06, -1.32519772e-05, -1.29347172e-05,
          -1.03409739e-05, -5.74499882e-06, -1.11643988e-06,
          -3.15130450e-07, 6.39213022e-06, 1.31408788e-05,
          1.12414573e-05, 4.04940329e-06, 5.18440402e-07, 8.01185979e-06,
          1.29378541e-05, 1.32519772e-05, 1.32519772e-05, 1.32519772e-05,
          8.19898196e-06, 2.44968282e-06, 0., 0., 0., -1.15889843e-05,
          -1.32519772e-05, -1.32519772e-05, -1.32519772e-05,
          -1.32519772e-05, -8.73071440e-06, -1.03937077e-06,
          -5.61260231e-06, -1.32519772e-05, -1.23001973e-05,
          -9.10579820e-06, -2.64962114e-06, -3.15130450e-07,
          6.39213022e-06, 1.32519772e-05, 1.20932109e-05, 4.04940329e-06,
          5.18440402e-07, 8.01185979e-06, 1.29378541e-05, 1.32519772e-05,
          1.32519772e-05, 1.32519772e-05, 6.20419087e-06, 1.47721948e-06,
          0., -5.71653914e-07, -6.08031905e-06, -1.23685122e-05,
          -1.32519772e-05, -1.32519772e-05, -1.32519772e-05,
          -1.04456758e-05, -4.62519984e-06, 0., -1.66299321e-06,
          -1.32519772e-05, -1.32519772e-05, -9.83549580e-06,
          -2.64962114e-06, -3.15130450e-07, 6.39213022e-06,
          1.32519772e-05, 1.22450047e-05, 6.14465125e-06, 5.18440402e-07,
          1.03264074e-05, 1.30654362e-05, 1.32519772e-05, 1.32519772e-05,
          1.32519772e-05, 6.43780322e-06, 7.76880768e-07,
          -7.27559552e-07, -4.57323131e-06, -1.30441031e-05,
          -1.32519772e-05, -1.32519772e-05, -1.32519772e-05,
          -1.32519772e-05, -7.32756371e-06, 0., 0., -1.66299321e-06,
          -1.32519772e-05, -1.32519772e-05, -9.83549580e-06,
          -2.64962114e-06, -3.15130450e-07, 6.39213022e-06,
          1.32519772e-05, 1.16836454e-05, 3.13699502e-06, 5.18440402e-07,
          1.27335370e-05, 1.31970837e-05, 1.32519772e-05, 1.32519772e-05,
          1.32519772e-05, 6.91922924e-06, 9.06495416e-07,
          -2.59842682e-06, -1.32519772e-05, -1.32519772e-05,
          -1.32519772e-05, -1.32519772e-05, -1.32519772e-05,
          -1.25763863e-05, -6.65197285e-06, 0., -3.11811220e-07,
          -2.75433263e-06, -1.32519772e-05, -1.32519772e-05,
          -1.03010589e-05, -4.03883496e-06, -3.15824309e-07,
          6.39213022e-06, 1.32519772e-05, 1.20964023e-05, 4.06515346e-06,
          5.18440402e-07, 1.27335370e-05, 1.31970837e-05, 1.32519772e-05,
          1.32519772e-05, 1.32519772e-05, 4.58616523e-06, 2.39905773e-07,
          -2.59842682e-06, -1.32519772e-05, -1.32519772e-05,
          -1.32519772e-05, -1.32519772e-05, -1.32519772e-05,
          -6.60000433e-06, -6.75590968e-07, 0., -2.80630115e-06,
          -1.21606381e-05, -1.32519772e-05, -1.32519772e-05,
          -1.10787469e-05, -6.28653288e-06, -3.25191223e-07,
          6.39213022e-06, 1.32519772e-05, 1.20964023e-05, 4.06515346e-06,
          5.18440402e-07, 1.27335370e-05, 1.31970837e-05, 1.32519772e-05,
          1.32519772e-05, 1.32519772e-05, 5.26149734e-06,
          -2.47850767e-06, -1.02378017e-05, -1.32519772e-05,
          -1.32519772e-05, -1.32519772e-05, -1.32519772e-05,
          -1.32519772e-05, -5.92441347e-06, 0., 0., -8.83465134e-07,
          -4.88504247e-06, -1.32519772e-05, -1.32519772e-05,
          -1.10787469e-05, -6.28701855e-06, -3.25885054e-07,
          6.39213022e-06, 1.32519772e-05, 1.20964023e-05, 4.06522258e-06,
          5.18440402e-07, 1.27213943e-05, 1.31957650e-05, 1.32519772e-05,
          1.32519772e-05, 1.32519772e-05, 8.39277800e-06,
          -2.66101802e-06, -1.32519772e-05, -1.32519772e-05,
          -1.32519772e-05, -1.32519772e-05, -1.32519772e-05,
          -8.57480882e-06, -2.75433263e-06, 0., 0., 0., -1.66299321e-06,
          -1.32519772e-05, -1.32519772e-05, -1.10946094e-05,
          -6.28139878e-06, -3.18460906e-07, 6.39213022e-06,
          1.32519772e-05, 1.20964023e-05, 4.06522258e-06, 5.18440402e-07,
          1.27158437e-05, 1.31952102e-05, 1.32519772e-05, 1.32519772e-05,
          1.32519772e-05, 6.52191011e-06, -5.72537738e-06,
          -1.31482893e-05, -1.32519772e-05, -1.32519772e-05,
          -1.32519772e-05, -1.32519772e-05, -4.46929425e-06, 0., 0., 0.,
          0., -1.66299321e-06, -1.32519772e-05, -1.32519772e-05,
          -1.26491832e-05, -7.83340511e-06, -3.15130450e-07,
          6.39213022e-06, 1.32519772e-05, 1.26198811e-05, 6.66675396e-06,
          5.18440402e-07, 1.09074617e-05, 1.30048538e-05, 1.32519772e-05,
          1.32519772e-05, 1.32519772e-05, 2.93608105e-06,
          -1.17142072e-05, -1.30547669e-05, -1.32519772e-05,
          -1.32519772e-05, -1.32519772e-05, -1.16409528e-05,
          -3.79370317e-06, 0., 0., 0., -4.67716831e-07, -3.48189201e-06,
          -1.32519772e-05, -1.32519772e-05, -1.32519772e-05,
          -8.45206159e-06, -3.15130450e-07, 6.39213022e-06,
          1.32519772e-05, 1.31964280e-05, 1.15519088e-05, 5.18440402e-07,
          5.07860204e-06, 1.25611959e-05, 1.32519772e-05, 1.32519772e-05,
          1.32519772e-05, 2.93608105e-06, -1.19114175e-05,
          -1.32519772e-05, -1.32519772e-05, -1.32519772e-05,
          -1.32519772e-05, -3.37795495e-06, -1.55905610e-07, 0., 0., 0.,
          -2.96220674e-06, -1.28881975e-05, -1.32519772e-05,
          -1.32519772e-05, -1.32519772e-05, -8.45206159e-06,
          -3.15130450e-07, 6.39213022e-06, 1.32519772e-05,
          1.32519772e-05, 1.21444336e-05, 5.18440402e-07, 3.94910285e-06,
          1.25076804e-05, 1.32519772e-05, 1.32519772e-05, 7.89921796e-06,
          -3.14423778e-06, -1.19114175e-05, -1.32519772e-05,
          -1.32519772e-05, -1.32519772e-05, -1.32519772e-05,
          -3.06614379e-06, 0., 0., 0., 0., -3.06614379e-06,
          -1.32519772e-05, -1.32519772e-05, -1.32519772e-05,
          -1.32519772e-05, -8.45358863e-06, -3.17142593e-07,
          6.39213022e-06, 1.32519772e-05, 1.32519772e-05, 1.21447802e-05,
          5.21770858e-07, 3.94910285e-06, 1.25076103e-05, 1.32519772e-05,
          8.31496618e-06, 2.59842682e-06, -3.30462603e-06,
          -1.07216929e-05, -1.32519772e-05, -1.32519772e-05,
          -1.32519772e-05, -6.34016169e-06, -1.24724488e-06, 0., 0., 0.,
          0., -1.24724488e-06, -6.34016169e-06, -1.32519772e-05,
          -1.32519772e-05, -1.32519772e-05, -8.46024886e-06,
          -3.25885054e-07, 6.39213022e-06, 1.32519772e-05,
          1.32519772e-05, 1.21308203e-05, 5.36133484e-07, 3.94910285e-06,
          1.25076103e-05, 9.30236820e-06, 2.96220674e-06,
          -1.69406589e-21, -2.40043505e-06, -1.00395837e-05,
          -1.32519772e-05, -1.27842604e-05, -7.95118649e-06,
          -9.87402245e-07, 0., 0., 0., 0., 0., 0., -1.66299321e-06,
          -1.32519772e-05, -1.32519772e-05, -1.32519772e-05,
          -8.46024886e-06, -3.25885054e-07, 6.39213022e-06,
          1.32519772e-05, 1.32519772e-05, 1.21308203e-05, 5.36133484e-07,
          3.94910285e-06, 1.25076804e-05, 3.53386054e-06,
          -1.69406589e-21, -1.69406589e-21, -2.40043505e-06,
          -1.00395837e-05, -1.32519772e-05, -1.20567011e-05,
          -2.59842693e-07, 0., 0., 0., 0., 0., 0., 0., -1.66299321e-06,
          -1.32519772e-05, -1.32519772e-05, -1.32519772e-05,
          -8.46024886e-06, -3.25885054e-07, 6.39213022e-06,
          1.32519772e-05, 1.32519772e-05, 1.21463063e-05, 5.36133484e-07,
          3.94910285e-06, 1.21418670e-05, 3.42992348e-06,
          -1.69406589e-21, -1.69406589e-21, -2.40043505e-06,
          -1.00395837e-05, -1.32519772e-05, -1.20567011e-05,
          -2.07874152e-07, 0., 0., 0., 0., 0., 0., 0., -1.66299321e-06,
          -1.32519772e-05, -1.32519772e-05, -1.32519772e-05,
          -8.46024886e-06, -3.25885054e-07, 6.39213022e-06,
          1.32519772e-05, 1.32519772e-05, 1.21463063e-05, 5.36133484e-07,
          3.94910285e-06, 3.10137443e-06, 5.71653914e-07,
          -1.69406589e-21, -1.69406589e-21, -2.40043505e-06,
          -1.00395837e-05, -1.32519772e-05, -1.20567011e-05,
          -2.07874152e-07, 0., 0., 0., 0., 0., 0., 0., -1.66299321e-06,
          -1.32519772e-05, -1.32519772e-05, -1.32519772e-05,
          -8.46024886e-06, -4.70235136e-07, 6.14205874e-06,
          1.32519772e-05, 1.30506505e-05, 1.11551590e-05, 5.36133484e-07,
          3.94910285e-06, 1.38641281e-06, -1.69406589e-21,
          -1.69406589e-21, -1.69406589e-21, -2.40043505e-06,
          -1.00395837e-05, -1.15370158e-05, -4.15748309e-06,
          -1.03937076e-07, 0., 0., 0., 0., 0., 0., -2.02677302e-06,
          -9.25039967e-06, -1.32519772e-05, -1.32519772e-05,
          -1.32519772e-05, -8.46024886e-06, -4.01109759e-07,
          6.25997882e-06, 1.32519772e-05, 1.25395900e-05, 8.61534409e-06,
          5.36133484e-07, -2.28712156e-06, 3.99010560e-07,
          -1.69406589e-21, -1.69406589e-21, -1.69406589e-21,
          -2.40043505e-06, -1.00395837e-05, -1.06535499e-05, 0., 0., 0.,
          0., 0., 0., 0., 0., -1.61102469e-06, -7.79528091e-06,
          -1.32519772e-05, -1.32519772e-05, -1.32519772e-05,
          -8.47611227e-06, -3.57611043e-07, 6.39213022e-06,
          1.32519772e-05, 1.26479963e-05, 9.17286434e-06, 5.36133484e-07,
          -9.30287388e-06, -7.44297267e-07, -1.69406589e-21,
          -1.69406589e-21, -1.69406589e-21, -2.40043505e-06,
          -1.00377802e-05, -1.13793058e-05, -3.74173464e-06,
          -3.74173464e-06, -3.74173464e-06, -3.74173464e-06,
          -3.74173464e-06, -3.74173464e-06, -2.07874155e-06, 0.,
          -8.83465134e-07, -4.88504247e-06, -1.32519772e-05,
          -1.32519772e-05, -1.32519772e-05, -9.84032977e-06,
          -2.15012960e-06, 4.62519984e-06, 1.09133925e-05,
          1.32519772e-05, 1.21463063e-05, 5.36133484e-07,
          -9.30287388e-06, -7.60229682e-07, -1.69406589e-21,
          -1.69406589e-21, -1.69406589e-21, -2.40043505e-06,
          -1.00300786e-05, -1.32424711e-05, -1.32519772e-05,
          -1.32519772e-05, -1.32519772e-05, -1.32519772e-05,
          -1.32519772e-05, -1.32519772e-05, -7.89921796e-06,
          -1.24724488e-06, -4.00157751e-06, -1.32519772e-05,
          -1.32519772e-05, -1.32519772e-05, -1.32519772e-05,
          -1.03320826e-05, -2.78464950e-06, -1.69406589e-21,
          4.52126278e-06, 1.20047325e-05, 1.10894180e-05, 1.31634158e-06,
          -9.30287388e-06, -7.44366673e-07, -1.69406589e-21,
          -1.69406589e-21, -1.69406589e-21, -2.40043505e-06,
          -9.60177749e-06, -1.28141710e-05, -1.32519772e-05,
          -1.32519772e-05, -1.32519772e-05, -1.32519772e-05,
          -1.32519772e-05, -1.32519772e-05, -1.26803234e-05,
          -1.20047325e-05, -1.23165437e-05, -1.32519772e-05,
          -1.32519772e-05, -1.32519772e-05, -1.32519772e-05,
          -1.03320826e-05, -2.78464950e-06, -1.69406589e-21,
          4.67716831e-07, 1.24724488e-06, 9.72528937e-07,
          -3.59832507e-06, -9.19511967e-06, -7.34131788e-07,
          -1.69406589e-21, -1.69406589e-21, -1.69406589e-21,
          -2.40043505e-06, -8.01547776e-06, -1.12279404e-05,
          -1.32519772e-05, -1.32519772e-05, -1.32519772e-05,
          -1.32519772e-05, -1.32519772e-05, -1.32519772e-05,
          -1.32519772e-05, -1.32519772e-05, -1.32519772e-05,
          -1.32519772e-05, -1.32519772e-05, -1.32519772e-05,
          -1.32519772e-05, -1.03320826e-05, -2.78464950e-06,
          -1.69406589e-21, -1.69406589e-21, -1.69406589e-21,
          -5.16781597e-07, -5.89196998e-06, -8.78443370e-06,
          -7.00296994e-07, -2.22030638e-09, -1.69406589e-21,
          -1.69406589e-21, -3.71680272e-07, -6.30818022e-06,
          -1.10851734e-05, -1.32519772e-05, -1.32519772e-05,
          -1.32519772e-05, -1.32519772e-05, -1.32519772e-05,
          -1.32519772e-05, -1.32519772e-05, -1.32519772e-05,
          -1.32519772e-05, -1.32519772e-05, -1.32519772e-05,
          -1.32519772e-05, -1.32519772e-05, -1.03320826e-05,
          -2.78464950e-06, -1.69406589e-21, -1.69406589e-21,
          -1.69406589e-21, -4.18140331e-07, -3.94910285e-06,
          -8.80679818e-06, -7.23119342e-07, -3.19169047e-09,
          -1.69406589e-21, -1.69406589e-21, -1.87388810e-06,
          -6.36172808e-06, -1.06962598e-05, -1.32519772e-05,
          -1.32519772e-05, -1.32519772e-05, -1.32519772e-05,
          -1.32519772e-05, -1.32519772e-05, -1.32519772e-05,
          -1.32519772e-05, -1.32519772e-05, -1.32519772e-05,
          -1.32519772e-05, -1.32519772e-05, -1.32519772e-05,
          -9.60238503e-06, -1.83286966e-06, -1.69406589e-21,
          -1.69406589e-21, -1.69406589e-21, 2.35353696e-07,
          -8.01632837e-07, -7.20176877e-06, 1.32065770e-06,
          2.07554990e-06, 2.07874155e-06, 2.07874155e-06,
          -3.21693648e-07, -2.14889610e-06, -7.74724867e-06,
          -1.11732361e-05, -1.11732361e-05, -1.11732361e-05,
          -1.11732361e-05, -1.11732361e-05, -1.11732361e-05,
          -1.11732361e-05, -1.11732361e-05, -1.16409528e-05,
          -1.32519772e-05, -1.32519772e-05, -1.32519772e-05,
          -1.32519772e-05, -8.46024886e-06, -3.25885054e-07,
          9.87402245e-07, 2.07874155e-06, 2.07874155e-06, 3.16830210e-06,
          4.58119757e-06, 3.53335463e-06, 1.20761115e-05, 1.28330375e-05,
          1.28362290e-05, 1.28362290e-05, 1.20154345e-05, 9.81655194e-06,
          3.01273644e-06, -4.12417847e-07, -4.15748303e-07,
          -4.15748303e-07, -4.15748303e-07, -4.15748303e-07,
          -4.15748303e-07, -4.15748303e-07, -4.15748303e-07,
          -3.37795495e-06, -1.32519772e-05, -1.32519772e-05,
          -1.32519772e-05, -1.17470781e-05, -6.73315344e-06,
          -3.25885054e-07, 6.18425611e-06, 1.28362290e-05,
          1.28362290e-05, 1.22108277e-05, 4.58119757e-06, 1.61061450e-06,
          1.01639880e-05, 1.28363472e-05, 1.32519772e-05, 1.32519772e-05,
          1.32519772e-05, 1.10713427e-05, 3.65374922e-06, 1.07546096e-08,
          0., 0., 0., 0., 0., 0., 0., -6.75590968e-07, -4.20945162e-06,
          -1.32519772e-05, -1.32519772e-05, -9.88667489e-06,
          -2.55375880e-06, -7.38016439e-08, 6.39213022e-06,
          1.32519772e-05, 1.32519772e-05, 1.25746074e-05, 4.58119757e-06,
          0., 8.44147053e-06, 1.25190872e-05, 1.32519772e-05,
          1.32519772e-05, 1.32519772e-05, 1.22608299e-05, 8.46950661e-06,
          2.03436184e-06, 7.63230368e-10, 0., 0., 0., 0., 0., 0., 0.,
          -1.66299321e-06, -1.32519772e-05, -1.07044398e-05,
          -5.20480444e-06, -1.79440053e-06, -1.69406589e-21,
          6.39213022e-06, 1.32519772e-05, 1.32519772e-05, 1.25591205e-05,
          4.58119757e-06, 0., 8.15073690e-06, 1.24601274e-05,
          1.32519772e-05, 1.32519772e-05, 1.32519772e-05, 1.32519772e-05,
          1.13330598e-05, 6.84643101e-06, 1.56924386e-06, 0., 0., 0., 0.,
          0., 0., -1.24724488e-06, -6.34016169e-06, -1.07384421e-05,
          -6.12413032e-06, -2.22627227e-06, -1.04312548e-07,
          -1.69406589e-21, 6.39213022e-06, 1.32519772e-05,
          1.25779752e-05, 7.43645387e-06, 4.58119757e-06, 0.,
          3.53497921e-06, 8.68644929e-06, 1.27698504e-05, 1.32519772e-05,
          1.32519772e-05, 1.32519772e-05, 1.21679095e-05, 1.05327772e-05,
          7.77611513e-06, 4.82831092e-06, 4.82831092e-06, 3.04921195e-06,
          1.61061450e-06, 1.61061450e-06, 1.61061450e-06,
          -1.45552917e-06, -1.04377978e-05, -6.35844572e-06,
          -4.40167469e-06, -1.99901046e-06, -1.69406589e-21,
          -1.69406589e-21, 6.39213022e-06, 1.28493239e-05,
          1.07973456e-05, 4.55070085e-06, 4.30062983e-06, 0., 0.,
          4.93405651e-06, 1.20240520e-05, 1.32480227e-05, 1.32519772e-05,
          1.32519772e-05, 1.32519772e-05, 1.32519772e-05, 1.24942417e-05,
          1.09092198e-05, 1.09092198e-05, 9.79761262e-06, 8.80565221e-06,
          6.95423523e-06, 6.89036688e-06, 3.83421457e-06,
          -5.59029650e-06, -4.33118248e-06, -2.95141467e-06,
          -9.67642791e-07, -1.69406589e-21, -1.69406589e-21,
          5.95850315e-06, 1.09209004e-05, 6.36940376e-06, 4.09446693e-06,
          2.06774030e-06, 0., 0., 2.33848846e-06, 8.31131547e-06,
          1.24752569e-05, 1.32519772e-05, 1.32519772e-05, 1.32519772e-05,
          1.32519772e-05, 1.32519772e-05, 1.32519772e-05, 1.32519772e-05,
          1.32519772e-05, 1.31406587e-05, 1.01987880e-05, 1.00874695e-05,
          7.02770967e-06, -3.15673628e-06, -3.15673628e-06,
          -1.23731377e-06, -1.69406589e-21, -1.69406589e-21,
          -4.33627008e-07, 4.01156422e-06, 6.73335444e-06,
          4.15915338e-06, 2.82361339e-06, 0., 0., 0., 0., 3.02983221e-06,
          8.91079435e-06, 1.25159622e-05, 1.32519772e-05, 1.32519772e-05,
          1.32519772e-05, 1.32519772e-05, 1.32519772e-05, 1.32519772e-05,
          1.32519772e-05, 1.32361138e-05, 1.30457584e-05, 1.30457584e-05,
          9.97961433e-06, -2.06218957e-07, -2.06218957e-07,
          -7.93149795e-08, -1.69406589e-21, -4.02653626e-07,
          -2.40850977e-06, 1.90783680e-07, 4.33278501e-06,
          3.36295511e-06, 1.90355962e-07, 0., 0., 0., 0., 9.83505743e-07,
          1.30076569e-06, 8.06501794e-06, 1.12971238e-05, 1.25315191e-05,
          1.32519772e-05, 1.32519772e-05, 1.32519772e-05, 1.32519772e-05,
          1.32519772e-05, 1.32519772e-05, 1.32519772e-05, 1.32519772e-05,
          1.16409528e-05, 5.45669627e-06, -1.69406589e-21,
          -3.71680272e-07, -6.19467130e-07, -2.51522465e-06,
          -5.96619520e-06, -2.52410609e-06, 4.05415358e-06,
          3.31536626e-06, 0., 0., 0., 0., 0., 0., 0., 1.45939566e-06,
          3.28364013e-06, 8.82731365e-06, 1.20976820e-05, 1.26177374e-05,
          1.28777992e-05, 1.29422433e-05, 1.32519772e-05, 1.32364903e-05,
          1.28957836e-05, 1.28802967e-05, 1.28802967e-05, 1.16850206e-05,
          3.00688816e-06, -2.96865915e-06, -4.72612464e-06,
          -5.89337606e-06, -9.19817103e-06, -2.81478287e-06,
          3.63262620e-06, 1.96701149e-06, 0., 0., 0., 0., 0., 0., 0., 0.,
          2.15736759e-06, 4.04506409e-06, 4.24837390e-06, 7.67425627e-06,
          9.28962163e-06, 9.99977510e-06, 1.32519772e-05, 1.31125971e-05,
          9.44225394e-06, 9.30287388e-06, 9.30287388e-06, 9.30287388e-06,
          7.48407501e-06, -7.47550348e-06, -8.95882022e-06,
          -9.20691309e-06, -9.20691309e-06, -2.81478287e-06,
          3.02983221e-06, 0., 0., 0. ]
      - [ -1.21645871e-05, -1.44383230e-05, -1.55160469e-05,
          -1.55160469e-05, -1.55160469e-05, -1.52775265e-05,
          -5.30733541e-06, -1.31038894e-06, -3.66039194e-06,
          3.13500732e-06, 1.06016819e-06, -2.32341691e-07,
          -2.32341691e-07, -7.25405584e-07, -5.30424722e-06,
          -6.83258986e-06, -9.29418093e-06, -9.79539345e-06,
          -1.22086203e-05, -1.50505048e-05, -1.99467413e-05,
          -1.99467413e-05, -1.99467413e-05, -1.99467413e-05,
          -2.02293159e-05, -1.55160469e-05, -1.11467289e-05, 0.,
          -2.54105744e-05, -2.57654356e-05, -2.59362951e-05,
          -2.59362951e-05, -2.59362951e-05, -2.58885902e-05,
          -1.88222693e-05, -9.78135995e-06, -4.77190861e-06,
          2.11431075e-06, 5.83008216e-07, 4.05454898e-07, 4.05454898e-07,
          3.17708555e-07, -7.88674356e-07, -1.10463202e-06,
          -1.35009668e-06, -3.23614790e-06, -8.51626555e-06,
          -1.32680243e-05, -2.04393091e-05, -2.83094032e-05,
          -2.86766208e-05, -2.86766208e-05, -2.82978617e-05,
          -2.25336044e-05, -1.20535951e-05, -2.82574138e-06,
          -3.21113293e-05, -3.21113293e-05, -3.21113293e-05,
          -3.21113293e-05, -2.87403218e-05, -2.30096484e-05,
          -1.85546087e-05, -8.31784655e-06, -1.70066767e-06,
          -6.77626358e-21, -6.77626358e-21, -6.77626358e-21,
          -6.77626358e-21, -6.77626358e-21, -6.77626358e-21,
          -6.77626358e-21, -6.77626358e-21, -5.68363873e-07,
          -1.80120810e-06, -6.72774968e-06, -1.60745676e-05,
          -2.08970632e-05, -2.72127418e-05, -3.21113293e-05,
          -2.92107179e-05, -2.31710419e-05, -1.22244537e-05,
          -3.35146046e-06, -3.21113293e-05, -3.21113293e-05,
          -3.21113293e-05, -2.98192863e-05, -1.99229507e-05,
          -7.94487732e-06, -4.49161735e-06, -1.85339286e-06,
          -6.77626358e-21, -6.77626358e-21, -6.77626358e-21,
          -6.77626358e-21, -6.77626358e-21, -6.77626358e-21,
          -6.77626358e-21, -6.77626358e-21, -6.77626358e-21,
          -6.77626358e-21, -6.77626358e-21, -6.36567506e-07,
          -7.71633677e-06, -1.57333761e-05, -2.01480871e-05,
          -2.67399555e-05, -3.02654862e-05, -2.45545798e-05,
          -1.22244537e-05, -3.35146046e-06, -3.21113293e-05,
          -3.21113293e-05, -2.99814656e-05, -2.08250876e-05,
          -8.94941968e-06, -1.76640685e-06, -6.77626358e-21,
          -6.77626358e-21, -6.77626358e-21, -6.77626358e-21,
          -6.77626358e-21, -6.77626358e-21, -6.77626358e-21,
          -6.77626358e-21, -6.77626358e-21, -6.77626358e-21,
          -6.77626358e-21, -6.77626358e-21, -6.77626358e-21,
          -6.77626358e-21, -1.65470271e-06, -5.83546762e-06,
          -1.21919911e-05, -2.18508339e-05, -2.86007653e-05,
          -2.45545798e-05, -1.22244537e-05, -3.35146046e-06,
          -3.21113293e-05, -3.21113293e-05, -2.32634975e-05,
          -9.98225823e-06, -1.76640685e-06, -6.77626358e-21,
          8.67436825e-07, 1.43258512e-06, 1.43258512e-06, 1.43258512e-06,
          8.61203802e-08, -1.63357458e-06, -3.26982740e-06,
          -1.59911883e-06, -1.59911883e-06, -1.27672945e-06,
          4.77819185e-07, 1.43258512e-06, 2.38846769e-06, 4.06950267e-06,
          4.06950267e-06, 3.29652767e-06, -1.63142170e-06,
          -1.00527859e-05, -1.62852539e-05, -1.47135324e-05,
          -1.08395725e-05, -1.91887557e-06, -2.75184448e-05,
          -2.65778363e-05, -1.60762556e-05, -2.79232290e-06,
          -6.77626358e-21, 5.20431740e-07, 1.15859248e-05,
          1.44267597e-05, 1.44267597e-05, 1.13627148e-05, 3.14860040e-06,
          -1.60361333e-06, -3.19974788e-06, -2.10209532e-06,
          5.46226545e-07, 2.42565420e-06, 5.24296001e-06, 8.18285844e-06,
          1.36376739e-05, 1.92423267e-05, 1.61685475e-05, 1.16097481e-05,
          1.09836601e-05, 4.94001824e-06, 4.63238121e-06, 6.80866424e-06,
          2.97647716e-06, 0., -2.25502754e-05, -1.49772868e-05,
          -6.28950602e-06, -1.28502904e-06, -6.77626358e-21,
          2.05140213e-06, 2.05531251e-05, 2.29375964e-05, 2.22081981e-05,
          1.33840194e-05, 1.83440454e-06, -6.40118606e-06,
          -6.40118606e-06, -6.12302711e-06, 3.13709370e-06,
          5.75691183e-06, 5.75691183e-06, 7.57212138e-06, 1.30938033e-05,
          1.61088756e-05, 1.65455440e-05, 2.00609848e-05, 2.05016458e-05,
          1.94768090e-05, 1.75221139e-05, 1.56710848e-05, 1.22209012e-05,
          0., -5.87934301e-06, -4.34251842e-06, -1.04164531e-06,
          -6.77626358e-21, -6.77626358e-21, 2.05140213e-06,
          1.94975528e-05, 1.50301948e-05, 1.21234834e-05, 2.66135044e-06,
          3.05402210e-07, -1.54166696e-06, -1.54166696e-06,
          -1.44894727e-06, 7.45418902e-07, 8.38138590e-07,
          8.38138590e-07, 8.92626929e-07, 7.63035678e-06, 1.51845861e-05,
          1.96917572e-05, 2.88439696e-05, 3.05696594e-05, 2.96375438e-05,
          2.30818496e-05, 1.67626149e-05, 1.22209012e-05, 0.,
          5.20744425e-06, 3.22032747e-06, -6.77626358e-21,
          -6.77626358e-21, -6.77626358e-21, 1.27751900e-06,
          1.51337363e-05, 1.20097093e-05, 5.66989911e-06, 0., 0., 0., 0.,
          0., 0., 0., 0., 0., 7.30200736e-06, 1.53615256e-05,
          1.75826026e-05, 2.71959980e-05, 3.20868457e-05, 3.11792101e-05,
          2.51614547e-05, 2.04968401e-05, 1.34418497e-05, 1.77610696e-06,
          5.20744425e-06, 3.25245333e-06, -6.77626358e-21,
          -6.77626358e-21, -6.77626358e-21, -1.13757699e-06,
          -8.03935620e-07, 1.95190432e-06, 1.59141877e-07, 0., 0., 0.,
          0., 0., 0., 0., 0., 0., 4.69423503e-06, 9.74167051e-06,
          1.56054793e-05, 2.11294027e-05, 3.02768804e-05, 3.20203908e-05,
          3.09063980e-05, 2.46834425e-05, 1.68518309e-05, 1.38472124e-05,
          5.85676344e-06, 3.36826793e-06, -6.77626358e-21,
          -6.77626358e-21, -6.77626358e-21, -1.25998292e-06,
          -8.96218353e-06, -3.83198721e-06, 0., 0., 0., 0., 0., 0., 0.,
          0., 0., 0., 6.18131310e-07, 5.47150830e-06, 1.13598317e-05,
          1.66312457e-05, 2.57853753e-05, 3.21113293e-05, 3.19749197e-05,
          2.89120690e-05, 1.69742380e-05, 1.44347605e-05, 8.70477197e-06,
          4.17190631e-06, -6.77626358e-21, -6.77626358e-21,
          -1.56679528e-06, -8.22267521e-06, -1.10125229e-05,
          -4.10256689e-06, 0., 0., 0., 0., 0., 0., 0., 0., 0., 0., 0.,
          1.85439387e-06, 7.17094463e-06, 1.55285779e-05, 2.57853753e-05,
          3.21113293e-05, 3.21113293e-05, 2.99578587e-05, 1.69742380e-05,
          1.44347605e-05, 9.71678219e-06, 4.50048083e-06,
          -6.77626358e-21, -6.77626358e-21, -2.22778704e-06,
          -1.31586576e-05, -1.29622349e-05, -4.10256689e-06, 0., 0., 0.,
          0., 0., 0., 0., 0., 0., 0., 0., 0., 5.74924252e-06,
          1.55285779e-05, 2.28721146e-05, 3.07893424e-05, 3.21113293e-05,
          3.02617464e-05, 2.01466974e-05, 1.44347605e-05, 1.41407518e-05,
          4.95711174e-06, -6.77626358e-21, -6.77626358e-21,
          -2.22778704e-06, -1.40376715e-05, -1.47136443e-05,
          -4.10256689e-06, 0., 0., 0., 0., 0., 0., 0., 0., 0., 0., 0.,
          0., 5.74924252e-06, 1.55285779e-05, 2.08891397e-05,
          2.98835403e-05, 3.21113293e-05, 2.99828844e-05, 1.85002882e-05,
          1.44347605e-05, 2.39192668e-05, 7.91636739e-06, 4.17534807e-07,
          -6.77626358e-21, -2.22778704e-06, -1.33988688e-05,
          -1.36325352e-05, -3.72093245e-06, 0., 0., 0., 0., 0., 0., 0.,
          0., 0., 0., 0., 0., 5.18905063e-06, 1.37917023e-05,
          2.08437323e-05, 2.98835403e-05, 3.21113293e-05, 3.01667314e-05,
          1.80049756e-05, 1.44347605e-05, 2.39192668e-05, 1.22201882e-05,
          1.79861138e-06, -6.77626358e-21, -2.22778704e-06,
          -1.61203097e-05, -6.15043746e-06, -3.81634095e-07, 0., 0., 0.,
          -4.99433327e-07, -6.44006150e-07, 0., 0., 0., 0., 0., 0., 0.,
          4.23419942e-06, 1.05685886e-05, 2.02307401e-05, 2.98835403e-05,
          3.21113293e-05, 3.01667314e-05, 1.80049756e-05, 1.44347605e-05,
          2.39192668e-05, 1.35049104e-05, 2.21614619e-06,
          -6.77626358e-21, -2.22778704e-06, -1.46820348e-05,
          -4.85584223e-06, -3.54860532e-07, -1.05143862e-07,
          -5.78291235e-07, -5.91434230e-07, -4.50259677e-06,
          -7.83045743e-06, -5.91434230e-07, -5.91434230e-07,
          -5.96415339e-06, -3.03058277e-06, -5.91434230e-07,
          -5.78291235e-07, -1.05143862e-07, 4.23419942e-06,
          1.05368035e-05, 2.01853327e-05, 2.98835403e-05, 3.21113293e-05,
          3.01667314e-05, 1.80095158e-05, 1.44347605e-05, 2.31246468e-05,
          1.34186375e-05, 2.21614619e-06, -6.77626358e-21,
          -2.22778704e-06, -1.21038629e-05, -1.62481465e-05,
          -5.13663190e-06, -8.01721967e-07, -8.92683693e-06,
          -1.55597936e-05, -1.65156762e-05, -1.76363646e-05,
          -1.55597936e-05, -1.55597936e-05, -1.76363646e-05,
          -1.65156762e-05, -1.26921450e-05, -5.20219146e-06,
          -8.01721967e-07, 3.95357620e-06, 1.07600272e-05,
          2.06711866e-05, 2.98835403e-05, 3.21113293e-05, 3.01667314e-05,
          1.80095158e-05, 1.44347605e-05, 2.27613909e-05, 1.33823114e-05,
          2.18402806e-06, -6.77626358e-21, -2.22778704e-06,
          -1.27596168e-05, -2.37382883e-05, -1.80488623e-05,
          -1.21709245e-05, -1.70213643e-05, -2.39212222e-05,
          -2.39212222e-05, -2.39212222e-05, -2.39212222e-05,
          -2.39212222e-05, -2.39212222e-05, -2.39212222e-05,
          -2.20753791e-05, -1.46481389e-05, -1.21709245e-05,
          -9.22259005e-06, 5.74270007e-06, 2.08891397e-05,
          2.98835403e-05, 3.21113293e-05, 3.11866461e-05, 2.30781916e-05,
          1.44347605e-05, 1.92380412e-05, 1.30114331e-05, 2.18402806e-06,
          -6.77626358e-21, -2.22778704e-06, -1.27596168e-05,
          -2.33271567e-05, -2.73892292e-05, -2.39212222e-05,
          -2.39212222e-05, -2.39212222e-05, -2.39212222e-05,
          -2.39212222e-05, -2.39212222e-05, -2.39212222e-05,
          -2.39212222e-05, -2.39212222e-05, -2.39212222e-05,
          -2.39212222e-05, -2.39212222e-05, -2.01091952e-05,
          -2.25852227e-06, 1.58110142e-05, 2.93967623e-05,
          3.21113293e-05, 3.20431245e-05, 2.98077339e-05, 1.44347605e-05,
          1.04697128e-05, 1.22179244e-05, 2.21614619e-06,
          -6.77626358e-21, -2.22778704e-06, -1.27596168e-05,
          -2.64433511e-05, -3.05054255e-05, -2.39212222e-05,
          -2.39212222e-05, -2.39212222e-05, -2.39212222e-05,
          -2.39212222e-05, -2.39212222e-05, -2.39212222e-05,
          -2.39212222e-05, -2.39212222e-05, -2.39212222e-05,
          -2.39212222e-05, -2.39212222e-05, -2.37781096e-05,
          -1.67011822e-05, 2.04280741e-06, 2.40947902e-05,
          3.14804638e-05, 3.21113293e-05, 3.05352405e-05, 1.44347605e-05,
          9.08290440e-06, 1.21818466e-05, 2.21614619e-06,
          -6.77626358e-21, -2.22778704e-06, -1.27596168e-05,
